tree
version=v4
num_class=1
num_tree_per_iteration=1
label_index=0
max_feature_idx=60
objective=lambdarank
feature_names=age course_length course_setting course_type distance_aptitude frame ground_condition horse_avg_rank horse_number horse_place_rate horse_race_count horse_weight horse_win_rate jockey_avg_rank jockey_id jockey_place_rate jockey_race_count jockey_recent_1_course_type jockey_recent_1_distance jockey_recent_1_ground_condition jockey_recent_1_num_horses jockey_recent_1_race_num jockey_recent_1_rank jockey_recent_1_time jockey_recent_2_course_type jockey_recent_2_distance jockey_recent_2_ground_condition jockey_recent_2_num_horses jockey_recent_2_race_num jockey_recent_2_rank jockey_recent_2_time jockey_recent_3_course_type jockey_recent_3_distance jockey_recent_3_ground_condition jockey_recent_3_num_horses jockey_recent_3_race_num jockey_recent_3_rank jockey_recent_3_time jockey_weight jockey_win_rate num_horses place prize_1 prize_2 prize_3 race_class race_grade race_mark race_number round running_style sex start_datetime trainer_avg_rank trainer_id trainer_place_rate trainer_race_count trainer_win_rate weather weight_aptitude weight_type
feature_infos=[2:12] [1000:4250] [1:9] [1:3] [0:6] [1:8] [10:41] [0:18] [1:18] [0:1] [0:8] [0:630] [0:1] [0:16] [10324:70364] [0:1] [0:393] [1:3] [1000:4250] [10:41] [6:18] [1:12] [0:18] [0:5066] [1:3] [1000:4250] [10:41] [6:18] [1:12] [0:18] [0:5066] [1:3] [1000:4250] [10:41] [6:18] [1:12] [0:18] [0:5066] [490:650] [0:1] [6:18] [3:10] [550:30000] [220:12000] [140:7500] [11:20] [1:6] [0:541] [1:12] [1:4] [0:4] [1:3] [202401060000:202406010000] [0:17] [10268:70210] [0:1] [0:206] [0:1] [1:4] [1:3] [1:4]
tree_sizes=1854 1852 1861 1859 1867 1872 1852 1867 1849 1856 1867 1863 1859 1860 1868 1861 1856 1854 1858 1862 1869 1867 1861 1860 1866 1874 1868 1855 1879 1870 1859 1864 1856 1860 1850 1846 1882 1862 1850 1853 1875 1862 1870 1854 1872 1863 1865 1860 1851 1874 1857 1864 1866 1863 1858 1850 1861 1858 1863 1870 1859 1855 1873 1842 1864 1851 1861 1859 1856 1852 1857 1861 1840 1836 1862 1868 1861 1834 1859 1835 1847 1853 1868 1847 1841 1850

Tree=0
num_leaves=16
num_cat=0
split_feature=9 13 7 7 12 4 7 50 13 11 13 37 53 13 50
split_gain=290.38 191.147 57.6211 56.1674 31.6995 27.3917 21.4135 19.9785 17.8614 17.2848 14.938 15.4098 10.1728 10.0972 9.96734
threshold=0.29166667163372045 7.697822332382203 8.7750000953674334 6.7083332538604745 0.22500000149011615 1.0000000180025095e-35 4.3666667938232431 3.5000000000000004 5.4365079402923593 421.00000000000006 6.502450942993165 3121.5000000000005 8.1702213287353533 6.5310404300689706 2.5000000000000004
decision_type=2 2 2 2 2 2 2 2 2 2 2 8 2 2 2
left_child=1 3 5 9 6 -3 -2 12 -6 -1 11 -11 -7 -5 -4
right_child=4 2 14 13 8 7 -8 -9 -10 10 -12 -13 -14 -15 -16
leaf_value=-0.045943067254529547 0.055924207915949577 -0.045333599512157166 -0.044464793020590414 -0.0049304206936866069 0.0543066646983313 0.0010727946968485287 0.023116387581504468 -0.042895783918614025 0.0025566143568227025 0.035658336199894468 0.0079259546436223315 0.0017381871862653222 -0.026270853779127343 -0.033998888937835529 -0.074531313870108792
leaf_weight=10.59738910757005 195.5844135126099 120.00568125490099 39.58864087658003 51.087082089390606 21.438919456675649 115.31218440935481 66.696862854412757 50.7772586181527 75.017301863408647 152.89763438061345 168.59887260536198 42.871149980695918 48.246791533078067 71.946362459450029 90.756010306417011
leaf_count=203 1844 2419 781 829 218 1789 889 1022 1111 1846 2490 634 915 1399 2174
internal_value=0.000171893 -0.0141361 -0.0372007 0.00738566 0.0385679 -0.0262073 0.0475813 -0.0154986 0.0140589 0.0170043 0.0188351 0.0282302 -0.00699306 -0.0219288 -0.0653994
internal_weight=1321.42 962.685 464.687 497.998 358.737 334.342 262.281 214.336 96.4562 374.965 364.368 195.769 163.559 123.033 130.345
internal_count=20563 16501 9100 7401 4062 6145 2733 3726 1329 5173 4970 2480 2704 2228 2955
is_linear=0
shrinkage=0.05


Tree=1
num_leaves=16
num_cat=0
split_feature=9 15 15 39 53 0 39 13 47 0 29 51 54 57 28
split_gain=403.236 271.715 129.845 78.5361 70.3093 57.996 51.3374 49.6318 41.3446 29.906 28.3874 26.747 27.1338 32.8192 32.1326
threshold=0.45000000298023229 0.23831367492675784 0.42622749507427221 0.18648459017276767 7.2932183742523202 5.5000000000000009 0.035496994853019721 8.7979593276977557 113.00000000000001 7.5000000000000009 13.500000000000002 1.5000000000000002 10448.500000000002 0.076303530484437956 2.5000000000000004
decision_type=2 2 2 2 2 2 2 2 2 2 8 2 2 2 10
left_child=1 4 5 9 -1 8 -7 -6 -2 11 -5 12 13 14 -3
right_child=2 3 -4 10 7 6 -8 -9 -10 -11 -12 -13 -14 -15 -16
leaf_value=-0.011856219433886997 0.020178964187880344 0.020566575561599108 0.052451474407274212 0.032687608768625358 -0.02486455273303944 0.026329467792999717 -0.051849666435377528 -0.048834709677013262 -0.01160647760416496 -0.098280268848228311 -0.062719940614546985 -0.0094322372682074801 0.020205325802491403 0.012245074789987665 -0.028444587990421322
leaf_weight=669.0361730994191 1072.6306877592579 44.084624241106212 268.21002294868231 267.40455314144492 640.92176188295707 32.542551353573799 59.196049444377422 325.69099132623523 113.09303590096533 7.6978847384452811 8.0306471213698369 404.0867547346279 241.85625865310431 213.94880360923707 138.53121531382203
leaf_count=4251 2364 154 409 645 4578 69 197 3298 425 48 40 1813 834 796 642
internal_value=0.000123356 -0.0106817 0.0208243 0.0061419 -0.0243166 0.014184 -0.0241171 -0.0329411 0.0171473 -9.06321e-05 0.0299059 0.000634401 0.00700605 -0.0010439 -0.016613
internal_weight=4506.96 2961.29 1545.67 1325.64 1635.65 1277.46 91.7386 966.613 1185.72 1050.21 275.435 1042.51 638.421 396.565 182.616
internal_count=20563 17099 3464 4972 12127 3055 266 7876 2789 4287 685 4239 2426 1592 796
is_linear=0
shrinkage=0.05


Tree=2
num_leaves=16
num_cat=0
split_feature=7 15 7 13 7 39 16 11 13 0 50 4 56 0 11
split_gain=392.27 211.568 118.728 83.4789 69.6488 62.3741 40.6862 37.9394 37.147 34.4403 32.6541 31.511 34.9196 28.1463 27.559
threshold=7.7750000953674325 0.42622749507427221 1.0000000180025095e-35 7.8083648681640634 4.4500000476837167 0.058732751756906516 12.500000000000002 475.00000000000006 4.5141508579254159 6.5000000000000009 2.5000000000000004 1.5000000000000002 24.500000000000004 6.5000000000000009 459.00000000000006
decision_type=2 2 2 2 2 2 2 2 2 2 2 2 2 2 2
left_child=1 2 3 11 9 -2 -3 -5 -8 14 -7 12 -1 -6 -4
right_child=5 6 4 7 13 10 8 -9 -10 -11 -12 -13 -14 -15 -16
leaf_value=0.0015013974162033654 -0.056046624209578969 -0.0078785343414343664 0.0040132393316852106 -0.043925231668428925 -0.0022895193027002371 -0.00017164088620771003 0.053126671766283121 -0.013773417081146565 0.025919496884460221 -0.068521947590367199 -0.036395814167858746 0.0080791601332187157 -0.029045933009847088 -0.070471472214662378 0.021635492653020491
leaf_weight=211.22689773142338 279.35752110555768 51.421116575598717 298.76399885863066 216.42483689077199 669.96811086358503 103.17726146057248 238.49021741375327 201.42762856837362 264.70547646842897 11.864786710590122 156.69584952946752 400.82297809957527 167.93281596340239 15.486294422298668 861.91461640782654
leaf_count=934 3391 186 798 2070 3604 663 406 1618 582 69 1348 1698 908 149 2139
internal_value=0.000133459 0.00607449 0.000918093 -0.0113565 0.0088314 -0.0396451 0.0344853 -0.0293904 0.0388144 0.0162331 -0.0220138 -0.00169532 -0.0120283 -0.00382994 0.0170994
internal_weight=4149.68 3610.45 3055.83 1197.84 1858 539.231 554.617 417.852 503.196 1172.54 259.873 779.983 379.16 685.454 1160.68
internal_count=20563 15161 13987 7228 6759 5402 1174 3688 988 3006 2011 3540 1842 3753 2937
is_linear=0
shrinkage=0.05


Tree=3
num_leaves=16
num_cat=0
split_feature=7 39 7 50 7 13 13 7 11 53 49 13 4 11 50
split_gain=314.08 165.517 123.911 80.2899 62.1458 56.2774 46.2569 44.8086 37.1614 33.7966 30.5651 26.9137 26.2376 23.918 22.5622
threshold=6.7083332538604745 0.13373984396457675 1.1250000000000002 2.5000000000000004 2.5499999523162846 7.8083648681640634 4.5141508579254159 10.366666316986086 459.00000000000006 8.112373352050783 1.5000000000000002 7.6539671421051034 1.0000000180025095e-35 437.00000000000006 3.5000000000000004
decision_type=2 2 2 2 2 2 2 2 2 2 2 2 2 2 2
left_child=1 2 5 7 -4 8 12 -2 -1 14 13 -5 -3 -7 -6
right_child=3 6 4 11 9 10 -8 -9 -10 -11 -12 -13 -14 -15 -16
leaf_value=-0.025544695191851513 0.0030767582553489071 0.010159412438659574 0.029236658085384934 -0.030950239603579129 0.011703313802054282 -0.059181298162513322 0.017653544774845771 -0.042882277081825161 0.0021347383801776604 -0.014356585671636439 -0.050217325857738832 -0.057398314345835512 0.051106388093694624 -0.013873941263289891 -0.011776165108146365
leaf_weight=159.97745288815349 185.53347889194265 48.758818367496133 308.75914626941085 170.03576141316444 692.90845548454672 33.201947340741754 663.21224380284548 74.26256153639406 501.03631664998829 207.84789842367172 114.82960034813732 221.4788045277819 197.94074630737305 237.46549556404352 120.04183628410101
leaf_count=947 1210 112 677 1488 2399 407 1866 800 2271 1021 1270 3096 339 2061 599
internal_value=0.000108305 0.00639544 -0.000548871 -0.0316114 0.00958123 -0.0134188 0.0245292 -0.0100606 -0.00456419 0.00363608 -0.0286019 -0.0459118 0.0430134 -0.0194317 0.00823629
internal_weight=3937.29 3285.98 2376.07 651.311 1329.56 1046.51 909.912 259.796 661.014 1020.8 385.497 391.515 246.7 270.667 812.95
internal_count=20563 13969 11652 6594 4696 6956 2317 2010 3218 4019 3738 4584 451 2468 2998
is_linear=0
shrinkage=0.05


Tree=4
num_leaves=16
num_cat=0
split_feature=7 15 10 13 7 15 52 47 53 9 0 10 23 4 29
split_gain=263.836 156.924 97.3009 56.7279 52.0516 51.7226 47.2863 33.5125 29.6136 28.1866 26.5018 25.2846 25.2773 22.9796 22.0392
threshold=7.7750000953674325 0.32746154069900518 1.0000000180025095e-35 4.5141508579254159 4.4500000476837167 0.20564061403274539 202402140000.00003 101.00000000000001 7.156353473663331 0.63333335518836986 6.5000000000000009 2.5000000000000004 1122.5000000000002 1.0000000180025095e-35 1.5000000000000002
decision_type=2 2 2 2 2 2 2 2 2 2 2 2 8 2 10
left_child=1 2 6 -3 7 -2 -1 -4 -6 10 -5 12 -9 -8 -10
right_child=5 3 4 9 8 -7 13 11 14 -11 -12 -13 -14 -15 -16
leaf_value=-0.0079496848411856093 -0.050945986002322065 0.04025795566839023 0.024197289878448561 0.0089037515274462808 0.0075471519951291867 -0.015417892771221726 -0.049011398642211178 0.030854700103263979 0.021651048790804511 0.026559944245723555 -0.068773426264001292 0.025762464551706235 -0.0092479735973618315 -0.020718629251480519 -0.020970685373756091
leaf_weight=551.21327556949109 261.71433922927827 256.83369704894722 373.26991690695286 592.55027236975729 213.68080217577517 168.33037144877017 125.24296734295785 46.028549170121551 33.909280013293028 284.2226843945682 11.187973737716673 97.494458507746458 268.55184675008059 168.08737779874355 287.35218371357769
leaf_count=3667 3899 512 949 2009 1066 1501 1325 126 154 671 63 280 959 1332 2046
internal_value=-0.000196563 0.00459071 -0.00332659 0.0195625 0.00515141 -0.0370394 -0.0165804 0.013345 -0.0068776 0.0135765 0.0074643 0.00351474 -0.00338026 -0.0327988 -0.0164719
internal_weight=3739.67 3309.63 2164.83 1144.79 1320.29 430.045 844.544 785.345 534.942 887.961 603.738 412.075 314.58 293.33 321.261
internal_count=20559 15159 11904 3255 5580 5400 6324 2314 3266 2743 2072 1365 1085 2657 2200
is_linear=0
shrinkage=0.05


Tree=5
num_leaves=16
num_cat=0
split_feature=9 13 13 57 12 50 50 39 32 50 25 16 54 4 13
split_gain=227.294 174.663 63.4602 48.415 47.2259 45.8945 30.4567 30.0518 23.4628 22.7839 22.4074 23.5324 28.6998 29.0913 22.885
threshold=0.22500000149011615 7.697822332382203 4.5141508579254159 0.13976744562387469 0.22500000149011615 3.5000000000000004 3.5000000000000004 0.056430933997035033 1075.0000000000002 3.5000000000000004 2930.0000000000005 42.500000000000007 10412.500000000002 1.0000000180025095e-35 7.1421356201171884
decision_type=2 2 2 2 2 2 2 2 10 2 10 2 2 2 2
left_child=1 3 -2 6 9 7 10 -3 -7 -4 11 -1 -13 -14 -15
right_child=2 5 4 -5 -6 8 -8 -9 -10 -11 -12 12 13 14 -16
leaf_value=0.010292900514610279 0.049832700348677809 -0.029329913330393573 0.020576452940589875 0.019832826880890445 -0.0053550792041835524 0.015219501938766193 -0.020415663531176978 -0.0043938831436964327 -0.055778034373560451 -0.0023444656365439586 -0.069643614088086239 -0.019546457904174655 -0.022372861141273518 0.019254052340393284 -0.020001175404527522
leaf_weight=382.80046392884105 124.07083486765623 433.74528220575303 846.85851219668984 259.08672262169421 289.87201670370996 12.486163293942807 228.79195155296475 167.4772378532216 171.06278257165104 124.33705941028893 11.441608941182492 225.92213521152735 81.32347703538835 203.12118439469486 45.431717488914728
leaf_count=1534 225 4859 2274 984 1289 114 1545 1416 2578 466 90 1426 503 884 372
internal_value=-0.000184927 -0.0100921 0.0157128 0.000262585 0.0123558 -0.0290646 -0.00403861 -0.0223837 -0.0509483 0.017642 -9.4634e-05 0.000753175 -0.00581721 0.00358552 0.0120788
internal_weight=3607.83 2222.69 1385.14 1437.92 1261.07 784.771 1178.83 601.223 183.549 971.196 950.041 938.599 555.799 329.876 248.553
internal_count=20559 16305 4254 7338 4029 8967 6354 6275 2692 2740 4809 4719 3185 1759 1256
is_linear=0
shrinkage=0.05


Tree=6
num_leaves=16
num_cat=0
split_feature=7 15 9 13 13 39 42 11 56 11 6 11 53 7 12
split_gain=218.553 112.229 72.2368 48.8193 45.5057 37.022 29.7393 28.6475 25.3327 21.4326 20.6932 20.3545 19.2546 19.1021 28.5408
threshold=8.5500001907348651 0.31158185005187994 0.22500000149011615 4.5141508579254159 7.8200309276580819 0.070052754133939757 1245.0000000000002 461.00000000000006 3.5000000000000004 463.00000000000006 15.500000000000002 401.00000000000006 6.3791892528533944 2.5499999523162846 0.70833334326744091
decision_type=2 2 2 2 2 2 2 2 2 2 2 2 2 2 2
left_child=1 2 4 8 -1 -2 11 10 -3 -6 12 -4 -5 14 -13
right_child=5 3 6 7 9 -7 -8 -9 -10 -11 -12 13 -14 -15 -16
leaf_value=-0.0029648623445855736 -0.05399919513090793 -0.053459942073464495 -0.096688238643187013 0.016975580417283476 -0.035716692939103498 -0.017835888204410781 -0.0091282274578862871 0.015932723318000809 0.039125891124016363 -0.014565521505160193 0.017715601997504226 0.032559285347003836 -0.024011900292391253 0.0081311802088306264 -0.040511740673321722
leaf_weight=693.93450915813446 192.33012389857322 7.6316399537026873 4.1895348988473406 37.409237544983625 194.24568413756788 111.97678405744955 195.94920585304499 691.61703912727535 231.51275103166699 312.37830931413919 72.977039352059364 177.27921521663666 122.41537122055888 438.5551427975297 14.452824052423237
leaf_count=4209 3320 34 21 122 2325 1079 904 2203 484 3135 237 361 536 1496 93
internal_value=-0.0002033 0.00365359 -0.0034399 0.0160352 -0.0112824 -0.0406921 0.00789811 0.010826 0.0361713 -0.0226751 -0.00434512 0.0131565 -0.0144182 0.0138866 0.0270512
internal_weight=3498.85 3194.55 2030.98 1163.56 1200.56 304.307 830.426 924.419 239.144 506.624 232.802 634.477 159.825 630.287 191.732
internal_count=20559 16160 12544 3616 9669 4399 2875 3098 518 5460 895 1971 658 1950 454
is_linear=0
shrinkage=0.05


Tree=7
num_leaves=16
num_cat=0
split_feature=9 13 15 53 4 39 11 0 42 11 39 33 28 37 12
split_gain=162.777 120.1 48.0979 40.0462 36.6144 36.0831 35.5831 28.2602 26.6181 23.7113 23.5366 20.1334 20.6035 23.5889 18.6738
threshold=0.36666667461395269 7.5678746700286874 0.41693206131458288 7.6346645355224618 1.5000000000000002 0.27422870695590978 479.00000000000006 6.5000000000000009 1245.0000000000002 441.00000000000006 0.085843570530414595 31.500000000000004 11.500000000000002 1261.5000000000002 0.22500000149011615
decision_type=2 2 2 2 2 2 2 2 2 2 2 10 10 10 2
left_child=1 4 8 -3 6 7 -1 -6 14 -10 -5 12 13 -11 -2
right_child=2 3 -4 10 5 -7 -8 -9 9 11 -12 -13 -14 -15 -16
leaf_value=-0.020622052322646876 0.018109217154981122 -0.012431767580640032 0.036106550523497177 -0.038122537341027662 0.0061382711079320798 0.04100966632060208 0.0038738000385593087 -0.058233317247913023 -0.070198368860432778 -0.040481474106490466 0.0023913052210034658 0.067396219255611026 0.037275496725484907 0.00034048473770948248 -0.0063377998398849323
leaf_weight=297.55745932925493 616.64668619818985 437.15804137196392 217.55207563191652 369.66429782193154 694.76539210043848 75.045991875231266 295.45608389284462 17.479040745645761 12.830748995766042 46.094833893701434 39.698898959904909 10.463884940370916 27.181924894452095 152.35691815055907 89.442336162552238
leaf_count=1961 1572 4381 452 5220 3362 168 1465 162 75 221 348 24 92 633 423
internal_value=-0.000188488 -0.00812796 0.0148894 -0.0229554 0.000965511 0.00803313 -0.00841753 0.00455854 0.0100561 -0.00400261 -0.0341936 -0.000405195 -0.00354952 -0.00914132 0.0150124
internal_weight=3399.39 2226.83 1172.57 846.521 1380.3 787.29 593.014 712.244 955.017 248.928 409.363 236.098 225.634 198.452 706.089
internal_count=20559 17067 3492 9949 7118 3692 3426 3524 3040 1045 5568 970 946 854 1995
is_linear=0
shrinkage=0.05


Tree=8
num_leaves=16
num_cat=0
split_feature=7 15 7 50 15 52 7 7 53 55 53 11 40 11 51
split_gain=171.848 89.0069 74.0739 60.2438 30.813 29.209 26.6898 26.0746 24.2441 22.886 25.8975 25.699 19.6285 20.653 18.8199
threshold=6.7083332538604745 0.32746154069900518 1.1250000000000002 2.5000000000000004 0.50757575035095226 202402245000.00003 2.7083333730697636 10.366666316986086 6.626453399658204 0.29610733687877661 7.3345499038696298 449.00000000000006 11.500000000000002 433.00000000000006 2.5000000000000004
decision_type=2 2 2 2 2 2 2 2 2 2 2 2 2 2 2
left_child=1 2 5 7 9 12 -4 -2 -7 10 -3 -12 -1 -14 -13
right_child=3 4 6 -5 -6 8 -8 -9 -10 -11 11 14 13 -15 -16
leaf_value=0.017108756697967017 0.0040165289106162527 -0.0079982822985218763 0.021421812069196966 -0.04031970931816857 0.034234926032173478 0.00091987365964638556 0.002551459250091463 -0.035372301116962032 -0.037824065956848257 0.023549153607824138 -0.025046065396074346 0.02213301985113144 -0.048420101100792923 -0.0079807003929768475 -0.083729212905153449
leaf_weight=72.380113078281283 163.43409095983952 199.91243642196059 249.53557857312262 310.08098375471309 203.69139857962728 52.994863130152225 752.28567166253924 56.554878233000636 169.5901817176491 293.07782102748752 35.104170920327306 263.8919284734875 33.933643897529691 453.81318098073825 4.266178745776414
leaf_count=448 1210 729 633 4578 470 376 3637 800 1924 889 171 795 453 3405 28
internal_value=-2.81697e-05 0.00493918 -0.0017525 -0.0261219 0.0168814 -0.0132773 0.00725172 -0.00610957 -0.0285996 0.0124421 0.00597276 0.0151826 -0.00718852 -0.0107942 0.0204488
internal_weight=3314.55 2784.48 1784.53 530.07 999.944 782.712 1001.82 219.989 222.585 796.253 503.175 303.262 560.127 487.747 268.158
internal_count=20546 13958 10876 6588 3082 6606 4270 2010 2300 2612 1723 994 4306 3858 823
is_linear=0
shrinkage=0.05


Tree=9
num_leaves=16
num_cat=0
split_feature=7 13 4 0 16 13 50 5 50 25 40 0 5 7 7
split_gain=152.449 85.8078 63.3898 61.7032 33.1592 31.7644 26.0729 24.8578 23.5965 21.9364 20.3272 19.3299 19.1103 17.2812 16.883
threshold=8.5500001907348651 6.2181713581085214 1.0000000180025095e-35 4.5000000000000009 9.5000000000000018 4.8257577419281015 3.5000000000000004 1.5000000000000002 2.5000000000000004 1850.0000000000002 14.500000000000002 6.5000000000000009 7.5000000000000009 4.3666667938232431 1.7083333134651186
decision_type=2 2 2 2 2 2 2 2 2 8 2 2 2 2 2
left_child=1 4 -3 6 -1 -6 9 -5 12 -4 -8 -9 -2 14 -7
right_child=8 2 3 7 5 13 10 11 -10 -11 -12 -13 -14 -15 -16
leaf_value=-0.0061191741657436261 -0.028979208144667586 -0.019689057497940577 0.0069695600464370734 -0.057876329202259359 0.03397423972675951 0.0079026004787066725 0.0071911624500848211 -0.0079948866162745449 -0.047555934719438038 0.024973052054646117 -0.029940938763744582 -0.051805586441298138 0.022009438081438609 -0.0043469088848659002 0.027075892265057262
leaf_weight=152.53537901677191 79.253049343824387 431.9622856201604 773.40067417919636 30.647165615111589 254.07127459347248 238.49510876275599 72.721228435635567 357.0605385703966 167.40905249863863 216.57771872542799 74.73343585152179 27.087363698985428 23.923518956638873 117.57813315000385 221.39869585633278
leaf_count=718 1047 3872 3816 290 601 863 519 2365 3136 950 644 368 217 552 588
internal_value=-3.61662e-05 0.00323903 -0.00274791 0.00196656 0.0153104 0.0192414 0.00798661 -0.0145414 -0.0359644 0.0109082 -0.0116282 -0.0110841 -0.0171565 0.0127594 0.0171329
internal_weight=3238.85 2968.27 1984.19 1552.23 984.079 831.543 1137.43 414.795 270.586 989.978 147.455 384.148 103.177 577.472 459.894
internal_count=20546 16146 12824 8952 3322 2604 5929 3023 4400 4766 1163 2733 1264 2003 1451
is_linear=0
shrinkage=0.05


Tree=10
num_leaves=16
num_cat=0
split_feature=7 9 15 15 39 11 12 7 50 4 39 54 11 48 59
split_gain=138.676 81.912 64.297 36.6796 27.8194 26.9782 20.7753 23.5927 20.693 19.9526 21.6127 17.4993 17.1791 15.9319 15.8211
threshold=8.5500001907348651 0.36666667461395269 0.20231407135725024 0.42622749507427221 0.070052754133939757 421.00000000000006 0.22500000149011615 2.7749999761581425 3.5000000000000004 1.0000000180025095e-35 0.27422870695590978 10347.000000000002 507.00000000000006 5.5000000000000009 1.0000000180025095e-35
decision_type=2 2 2 2 2 2 2 2 2 2 2 2 2 2 10
left_child=1 2 8 6 -2 -4 7 -3 14 -7 11 -11 -8 -5 -1
right_child=4 3 5 13 -6 9 12 -9 -10 10 -12 -13 -14 -15 -16
leaf_value=-0.030987773581403741 -0.04771491629512431 0.026004166203848225 -0.049429251421006383 0.050800730476084167 -0.013595841565647996 -0.005713978499948414 -0.011842024883406526 0.0068560225983757316 -0.031420903731135819 -0.015769972288315462 0.035465350378809449 0.0098924338955271134 0.021991476498132451 0.021264992715441834 -0.0073533772825106515
leaf_weight=81.425962209701538 163.084716970101 256.55661612935364 22.643604496493936 81.339163262397051 94.283004385884851 279.25280681531876 161.18653005920351 431.30001694895327 144.6792754419148 74.40190913528204 74.593434887006879 620.02776056155562 48.901060570031404 104.07987020537257 543.06077325250953
leaf_count=951 3318 567 223 158 1082 1569 872 1433 1861 470 180 2920 194 252 4496
internal_value=-2.97261e-05 0.00306791 -0.003354 0.0139755 -0.0352159 0.00456696 0.00979479 0.0139979 -0.0143825 0.00573332 0.00989014 0.00714294 -0.00396677 0.0342217 -0.010435
internal_weight=3180.82 2923.45 1840.09 1083.36 257.368 1070.92 897.944 687.857 769.166 1048.28 769.023 694.43 210.088 185.419 624.487
internal_count=20546 16146 12670 3476 4400 5362 3066 2000 7308 5139 3570 3390 1066 410 5447
is_linear=0
shrinkage=0.05


Tree=11
num_leaves=16
num_cat=0
split_feature=7 7 39 7 15 7 53 11 14 30 15 39 53 56 37
split_gain=123.331 69.207 55.1805 42.5245 37.3823 34.3575 27.0672 22.8065 20.4315 19.1501 18.9656 18.408 18.048 16.8106 16.5056
threshold=6.2916667461395273 1.1250000000000002 0.082272361963987364 4.4500000476837167 0.42622749507427221 10.708333492279055 7.6346645355224618 425.00000000000006 30452.500000000004 1374.5000000000002 0.30652768909931188 0.042313201352953918 7.0212862491607675 55.500000000000007 1213.5000000000002
decision_type=2 2 2 2 2 2 2 2 2 8 2 2 2 2 10
left_child=1 2 6 4 -3 11 13 -4 9 -9 -7 -2 -5 -1 -10
right_child=5 3 7 12 -6 10 -8 8 14 -11 -12 -13 -14 -15 -16
leaf_value=-0.0022579833263017945 -0.030509450873702815 0.013529838135827777 -0.056123295359129854 0.012019926743027955 0.039968720730003578 -0.051767270587645776 -0.028860390866746057 0.014129406298965565 -0.025978716980323155 -0.0067719432014826221 0.002641902072206102 -0.0075741063260535814 -0.0096041112829212197 -0.032191528807855835 0.029501595296138289
leaf_weight=310.76254578121006 126.11239478364587 804.23934860341251 14.272426282055674 156.36300952918828 160.35354389622808 112.24718277947977 223.44324221741408 196.5578705072403 14.905698698014019 247.6761744376272 18.681958579458296 285.63032081024721 252.01061698142439 55.241254070773721 133.22859657742083
leaf_count=2255 1796 2617 134 721 363 2396 2650 862 60 1194 184 2630 1605 640 439
internal_value=-3.51414e-05 0.00453982 -0.00425257 0.0121995 0.017925 -0.0216934 -0.0151475 0.00633358 0.0078384 0.00247617 -0.0440038 -0.014599 -0.00132444 -0.00677588 0.023919
internal_weight=3111.73 2569.05 1196.09 1372.97 964.593 542.672 589.447 606.641 592.368 444.234 130.929 411.743 408.374 366.004 148.134
internal_count=20546 13540 8234 5306 2980 7006 5545 2689 2555 2056 2580 4426 2326 2895 499
is_linear=0
shrinkage=0.05


Tree=12
num_leaves=16
num_cat=0
split_feature=15 7 51 4 50 15 50 53 4 13 47 57 53 0 16
split_gain=109.265 74.3457 46.7089 34.0895 27.6888 26.3669 24.7658 22.8576 20.8624 22.1405 22.1895 18.9119 18.4295 17.8462 16.9252
threshold=0.21579768508672717 8.0625000000000018 1.5000000000000002 1.0000000180025095e-35 2.5000000000000004 0.53144779801368724 3.5000000000000004 7.6828095912933358 1.5000000000000002 4.9154760837554941 61.500000000000007 0.076303530484437956 5.0250000953674325 5.5000000000000009 12.500000000000002
decision_type=2 2 2 2 2 2 2 2 2 2 2 2 2 2 2
left_child=1 3 5 -1 13 6 -2 -6 -4 12 14 -8 -10 -5 -11
right_child=2 -3 8 4 7 -7 11 -9 9 10 -12 -13 -14 -15 -16
leaf_value=-0.021197423843997591 0.014861908836383648 -0.041932012876706309 -0.014954454618896934 0.0098686040247137168 -0.0018745341206422414 0.035321377995192742 -0.025810266014638806 -0.025629389646112496 -0.084626365590935559 -0.069678039331764682 -0.01715264067079985 0.009915046420484774 0.038773832398255471 -0.034408647738042163 0.013431048999258528
leaf_weight=287.44054549839348 846.27371184434742 166.48611518973485 226.19337508361787 418.88318746909499 289.07241140585393 132.2536154948175 71.433553724549711 155.87058648094535 3.1963146999478331 6.3573320722207418 125.51083488110453 76.949436327442527 56.671361088752747 24.064856326207519 168.34322010353208
leaf_count=3045 3489 3605 1469 2215 1936 333 517 1596 10 47 775 398 146 236 726
internal_value=2.36547e-05 -0.010661 0.00839219 -0.00623142 -0.00138642 0.0143471 0.0115582 -0.0101962 -0.00305405 0.0044215 -0.00111516 -0.0072836 0.0321855 0.00746307 0.0104067
internal_weight=3055 1341.82 1713.18 1175.33 887.891 1126.91 994.657 444.943 586.272 360.079 300.211 148.383 59.8677 442.948 174.701
internal_count=20543 12633 7910 9028 5983 4737 4404 3532 3173 1704 1548 915 156 2451 773
is_linear=0
shrinkage=0.05


Tree=13
num_leaves=16
num_cat=0
split_feature=9 13 7 13 7 12 7 0 11 59 13 36 50 7 0
split_gain=103.575 74.406 27.933 27.3192 27.1207 22.4978 22.82 20.7362 20.2858 16.4876 15.9128 16.4272 16.7685 15.1502 15.6748
threshold=0.36666667461395269 7.8083648681640634 10.708333492279055 4.5141508579254159 6.2249999046325692 0.22500000149011615 2.7749999761581425 6.5000000000000009 425.00000000000006 2.5000000000000004 9.3761792182922381 13.500000000000002 2.5000000000000004 4.2916667461395273 4.5000000000000009
decision_type=2 2 2 2 2 2 2 2 2 8 2 8 2 2 2
left_child=1 4 8 -2 7 6 -5 9 -3 13 11 12 -10 14 -1
right_child=3 2 -4 5 -6 -7 -8 -9 10 -11 -12 -13 -14 -15 -16
leaf_value=0.019216147635612111 0.03933646063022745 -0.054144831283256145 -0.050913820933222553 0.026244909728236551 -0.014735364319145567 -0.0036518287237727052 0.0077481390239532884 -0.038259719021280364 -0.0032470441542719122 -0.0026040763467427295 -0.030345468130115835 0.011187342050099797 -0.025815560370923953 -0.0071684716495397692 -0.00014206365788467312
leaf_weight=355.71174395084381 89.865284908562899 34.713620839640498 68.585620661266148 268.82095354422927 254.54847390530631 216.34833746403456 439.15826747007668 29.127496696077287 162.18390254955739 464.62332940474153 124.16372200613841 75.291824638843536 167.11207827879116 107.2787525523454 148.11241261847317
leaf_count=1499 216 618 1768 626 2742 1126 1522 268 1580 2503 1794 700 2244 577 760
internal_value=1.1708e-05 -0.00661204 -0.0207859 0.013018 -2.1955e-05 0.0104593 0.0147714 0.00336788 -0.0171187 0.00449504 -0.0146878 -0.00988264 -0.0147002 0.00989251 0.0135253
internal_weight=3005.65 1991.45 632.051 1014.19 1359.4 924.328 707.979 1104.85 563.465 1075.73 528.752 404.588 329.296 611.103 503.824
internal_count=20543 17053 8704 3490 8349 3274 2148 5607 6936 5339 6318 4524 3824 2836 2259
is_linear=0
shrinkage=0.05


Tree=14
num_leaves=16
num_cat=0
split_feature=7 15 50 4 13 51 50 16 44 11 38 15 13 21 15
split_gain=88.2807 59.431 43.2062 33.4457 24.6322 22.1156 21.8964 19.7054 19.4445 15.7157 14.9141 18.8831 20.4507 14.7504 17.0465
threshold=8.5500001907348651 0.33386924862861639 3.5000000000000004 1.0000000180025095e-35 4.8257577419281015 1.5000000000000002 2.5000000000000004 9.5000000000000018 285.00000000000006 455.00000000000006 565.00000000000011 0.34064063429832464 6.324681520462037 8.5000000000000018 0.20434031635522845
decision_type=2 2 2 2 2 2 2 2 2 2 2 2 2 10 2
left_child=1 2 3 5 7 9 -2 -3 13 -1 -6 -12 -13 -5 -15
right_child=6 4 -4 8 10 -7 -8 -9 -10 -11 11 12 -14 14 -16
leaf_value=-0.043288313746819018 -0.010545607322891457 -0.019863821551179602 -0.020496271166087255 0.0038466923433463323 -0.002680580112974975 -0.027753481461139068 -0.042549883158351814 0.031264131802741346 -0.0045739335744284593 0.0021279188998488763 0.05244903171262208 0.015088143566482585 -0.018176500656679615 0.0051616605645713916 0.028871014631016635
leaf_weight=21.17388526443392 87.469884615857154 20.621456272900105 285.26223053457215 513.66930543072522 214.70600283611566 145.86636129254475 137.38576271338388 218.83244587853551 388.16459420416504 189.72877575084567 28.966135980561376 345.38563413452357 53.340045580640435 142.93272096756846 161.43875277601182
leaf_count=262 1269 83 2969 2744 953 1622 3134 590 2575 1402 81 1150 256 860 593
internal_value=1.36753e-05 0.00249391 -0.00260183 0.000664122 0.0131739 -0.0127846 -0.0301001 0.0268611 0.00464196 -0.00243171 0.00807195 0.0134698 0.0106381 0.00901495 0.0177371
internal_weight=2954.94 2730.09 1848.24 1562.97 881.852 356.769 224.856 239.454 1206.21 210.903 642.398 427.692 398.726 818.041 304.371
internal_count=20543 16140 13027 10058 3113 3286 4403 673 6772 1664 2440 1487 1406 4197 1453
is_linear=0
shrinkage=0.05


Tree=15
num_leaves=16
num_cat=0
split_feature=7 15 50 59 13 53 7 39 0 11 42 15 11 35 19
split_gain=80.8937 54.2043 31.3457 28.7219 21.2372 20.7152 25.8217 19.3063 17.375 16.0534 17.3182 17.3389 16.0479 15.1121 14.3644
threshold=8.5500001907348651 0.31158185005187994 3.5000000000000004 2.5000000000000004 4.8257577419281015 6.8899888992309579 1.0000000180025095e-35 0.070052754133939757 6.5000000000000009 487.00000000000006 1090.0000000000002 0.2115893363952637 461.00000000000006 11.500000000000002 20.500000000000004
decision_type=2 2 2 8 2 2 2 2 2 2 2 2 2 8 10
left_child=1 2 3 8 13 6 -5 -2 9 -1 11 -11 14 -3 -6
right_child=7 4 -4 5 12 -7 -8 -9 -10 10 -12 -13 -14 -15 -16
leaf_value=0.0011875615423804606 -0.041397488244494719 0.02795851846947511 -0.019046002242006668 -0.014852715332229968 -0.013702555065297018 -0.015756990669033619 0.021343882252488615 -0.010747756055773841 -0.040619525815733748 0.012314286544244872 0.0021027316453151447 0.043093566346739394 0.011680696006187541 -0.026343751344694036 0.019325360343459448
leaf_weight=534.36488252226263 131.75663592433557 221.72980441525578 258.60244997963309 93.44095703586936 133.38193880859762 376.28185281157494 104.23114578612149 84.221582203637809 19.973316272720695 109.54218164458871 143.36933074053377 78.577592806890607 570.08037317730486 13.598109273239968 43.708014385774732
leaf_count=3164 3320 617 2867 762 687 3325 439 1083 266 575 864 258 2092 56 168
internal_value=-1.14061e-07 0.00235451 -0.00300148 -0.000159168 0.0117221 -0.00887218 0.0042335 -0.0294455 0.00548625 0.00654981 0.0151938 0.0251708 0.00759657 0.0248207 -0.00555085
internal_weight=2916.86 2700.88 1718.38 1459.78 982.498 573.954 197.672 215.978 885.827 865.854 331.489 188.12 747.17 235.328 177.09
internal_count=20543 16140 12520 9653 3620 4526 1201 4403 5127 4861 1697 833 2947 673 855
is_linear=0
shrinkage=0.05


Tree=16
num_leaves=16
num_cat=0
split_feature=7 7 7 39 16 15 7 29 11 42 11 39 11 14 38
split_gain=74.7136 50.0284 41.0551 37.5158 28.1193 22.991 22.1479 21.8733 18.985 17.4994 21.4194 16.744 16.6617 16.2258 14.9619
threshold=6.7083332538604745 1.1250000000000002 4.4500000476837167 0.17867118865251544 9.5000000000000018 0.37023855745792394 11.125000000000002 5.5000000000000009 461.00000000000006 1245.0000000000002 503.00000000000006 0.042313201352953918 417.00000000000006 30598.000000000004 565.00000000000011
decision_type=2 2 2 2 2 2 2 8 2 2 2 2 2 2 2
left_child=1 3 5 8 7 9 11 -5 -1 12 -11 -2 -3 14 -10
right_child=6 2 -4 4 -6 -7 -8 -9 13 10 -12 -13 -14 -15 -16
leaf_value=-0.020497516756549219 -0.030809473557768516 -0.042513729095168776 -0.0026910750004286079 0.00040129563662146418 0.022154175712906551 0.030141675806224053 -0.042823805795261724 -0.094682812960200036 -0.017502917685537127 -0.015266528953751999 0.025817865585442353 -0.0067140146031558412 0.017221540868211004 0.0188068371725096 -0.0011051380072871007
leaf_weight=249.4706722907722 102.23559351218864 11.947737064212559 435.6133824903518 17.199189506471161 177.48599205072969 218.18265399336815 81.215838424861431 9.3290860131382924 216.16750953625888 109.26910558529198 44.703188423067331 244.58931604539976 508.45542183890939 67.998784974217415 390.23393072281033
leaf_count=2699 1902 55 2747 65 548 582 2021 66 1889 534 152 2670 1656 325 2656
internal_value=-4.34395e-05 0.00331616 0.00989221 -0.00442763 0.0149776 0.0160335 -0.0193205 -0.0330365 -0.00871281 0.011469 -0.00333839 -0.0138168 0.0158501 -0.00435347 -0.00695055
internal_weight=2884.1 2456.06 1328.17 1127.89 204.014 892.558 428.041 26.5283 923.871 674.375 153.972 346.825 520.403 674.4 606.401
internal_count=20567 13974 5726 8248 679 2979 6593 131 7569 2397 686 4572 1711 4870 4545
is_linear=0
shrinkage=0.05


Tree=17
num_leaves=16
num_cat=0
split_feature=9 13 13 4 11 7 30 48 55 7 55 23 35 53 53
split_gain=79.9576 60.1107 25.0183 20.5852 22.1917 20.5803 16.7506 16.4669 16.2134 15.1739 15.4721 14.1603 15.8005 14.1402 13.7417
threshold=0.22500000149011615 7.697822332382203 4.5141508579254159 1.5000000000000002 521.00000000000011 10.708333492279055 1089.5000000000002 5.5000000000000009 0.20705188065767291 4.0833332538604745 0.50438597798347484 1551.5000000000002 6.5000000000000009 9.3723211288452166 8.7443156242370623
decision_type=2 2 2 2 2 2 8 2 2 2 2 10 10 2 2
left_child=1 3 -2 4 14 8 -5 13 -3 10 -9 -11 -13 -4 -1
right_child=2 5 7 6 -6 -7 -8 9 -10 11 -12 12 -14 -15 -16
leaf_value=-0.0076751008414718729 0.036680798477396297 -0.024913612993939741 0.017609125597648691 -0.040243971364452291 0.024023178432775235 -0.046909597766941633 0.0072024105465987353 0.0063226539812203126 -0.0075295558926733331 -0.023835791834083679 0.082765309697643452 -0.02218631193287688 0.03623914420460729 -0.048546700727573819 -0.033247989019461813
leaf_weight=390.88705828320235 85.123809535056353 272.37344767944887 393.99742122739553 19.158495696261525 49.90881469193846 61.410542304627597 640.58152448991314 454.99330056272447 264.2512867632322 85.736277366057038 6.7171086966991416 20.787204084917903 26.103315381333232 8.246250391006468 60.687411090359092
leaf_count=2821 230 4118 1309 151 232 1870 3602 1786 2984 620 11 145 123 42 523
internal_value=-3.4662e-05 -0.0066121 0.0106627 2.05418e-05 -0.00761514 -0.0194909 0.00582459 0.00844037 -0.0163531 0.0031529 0.00743477 -0.0117534 0.0103383 0.0162529 -0.0111119
internal_weight=2840.96 1759.26 1081.7 1161.22 501.483 598.035 659.74 996.581 536.625 594.337 461.71 132.627 46.8905 402.244 451.574
internal_count=20567 16301 4266 7329 3576 8972 3753 4036 7102 2685 1797 888 268 1351 3344
is_linear=0
shrinkage=0.05


Tree=18
num_leaves=16
num_cat=0
split_feature=9 15 12 15 11 11 50 30 13 0 0 15 23 11 56
split_gain=70.7277 55.701 24.7648 24.6836 24.1199 19.1569 18.1018 15.8469 18.5975 19.5646 15.2736 23.8303 16.4797 15.0521 15.136
threshold=0.22500000149011615 0.20231407135725024 0.22500000149011615 0.37023855745792394 431.00000000000006 421.00000000000006 3.5000000000000004 3153.5000000000005 4.8257577419281015 6.5000000000000009 5.5000000000000009 0.14530791342258456 1573.5000000000002 501.00000000000006 62.500000000000007
decision_type=2 2 2 2 2 2 2 8 2 2 2 2 10 2 2
left_child=1 4 3 10 -1 -3 -6 8 -7 13 -2 -12 -13 14 -10
right_child=2 5 -4 -5 6 7 -8 -9 9 -11 11 12 -14 -15 -16
leaf_value=-0.046216227214325778 0.01178526904055106 -0.047578614446067237 -0.0037288382014508265 0.031027939433839993 -0.0099171642874819211 0.020805562507404854 -0.030682729159946527 -0.046893763171153874 0.0023462594218304177 -0.053265398087246091 0.037561283252949912 -0.073184674884609349 0.0062666066871035382 0.01328592678375683 -0.015496028066126136
leaf_weight=63.194788053166121 605.42426247429103 19.552161392755806 249.01181882992387 173.37814782932401 545.35456834803335 130.12009736709297 129.95723378891125 16.0347995236516 451.1077783619985 16.594533183611929 12.598910955712197 18.403793454170231 10.112988431006668 205.40177743742242 161.3883531242609
leaf_count=1257 2164 282 1365 477 6274 428 2555 116 2742 236 58 142 60 1058 1353
internal_value=-4.02394e-05 -0.00626261 0.010081 0.0142751 -0.0166775 0.00142732 -0.0139133 0.0024044 0.00322388 0.00048242 0.00978256 -0.0197071 -0.0450086 0.00157292 -0.00235506
internal_weight=2807.64 1738.71 1068.93 819.918 738.507 1000.2 675.312 980.647 964.613 834.492 646.54 41.1157 28.5168 817.898 612.496
internal_count=20567 16301 4266 2901 10086 6215 8829 5933 5817 5389 2424 260 202 5153 4095
is_linear=0
shrinkage=0.05


Tree=19
num_leaves=16
num_cat=0
split_feature=9 13 12 15 7 7 28 39 7 21 29 55 13 0 4
split_gain=64.263 52.1267 22.4907 20.3696 18.0651 16.6932 16.7317 16.6231 14.9196 14.7315 14.117 13.382 13.3009 12.3687 12.3613
threshold=0.22500000149011615 7.697822332382203 0.22500000149011615 0.37023855745792394 10.708333492279055 2.7749999761581425 9.5000000000000018 0.18153409659862521 6.7083332538604745 10.500000000000002 13.500000000000002 0.2026171758770943 4.1990098953247079 4.5000000000000009 1.0000000180025095e-35
decision_type=2 2 2 2 2 2 8 2 2 10 8 2 2 2 2
left_child=1 7 3 5 11 -2 9 8 -1 -7 13 -3 -4 14 -9
right_child=2 4 12 -5 -6 6 -8 10 -10 -11 -12 -13 -14 -15 -16
leaf_value=0.0003006009950582406 0.021572540446941811 -0.023533059811994331 0.034098949342175028 0.029077525642148595 -0.044795391940202239 0.0045545400079946528 -0.011030585568443531 -0.00094418863428760301 -0.01611371103266129 0.030548739250188629 -0.066834146293091645 -0.0075051670408775618 -0.0071903244060814824 -0.0059852102731197104 0.030483201259138483
leaf_weight=751.30041311774403 200.14808331057429 253.27427820954472 21.363880096003413 169.71725064516068 57.617710307240486 242.13623855635524 128.44726411998272 43.171569438651204 169.70715840999037 70.337482139468193 5.4399869609624139 268.06244042608887 224.17350728809834 53.618224676698446 113.67519376054406
leaf_count=4440 505 4017 65 477 1870 1095 575 188 2100 249 43 3085 1300 209 349
internal_value=-4.25887e-05 -0.00601563 0.00965988 0.0136748 -0.018228 0.00959709 0.00416104 0.000203321 -0.00272394 0.0104058 0.0126904 -0.0152918 -0.0035978 0.0147459 0.0218329
internal_weight=2772.19 1715.87 1056.32 810.786 578.954 641.069 440.921 1136.91 921.008 312.474 215.905 521.337 245.537 210.465 156.847
internal_count=20567 16301 4266 2901 8972 2424 1919 7329 6540 1344 789 7102 1365 746 537
is_linear=0
shrinkage=0.05


Tree=20
num_leaves=16
num_cat=0
split_feature=15 7 11 13 53 7 52 50 7 7 11 37 8 16 23
split_gain=58.8837 36.8702 27.4861 24.9663 20.4818 18.0281 22.5829 17.4808 16.0687 18.3587 16.4843 18.6158 15.9872 15.6471 15.6354
threshold=0.21579768508672717 8.0625000000000018 421.00000000000006 4.8257577419281015 6.9209914207458505 1.1250000000000002 202402140000.00003 3.5000000000000004 4.0833332538604745 1.1250000000000002 477.00000000000006 2071.5000000000005 4.5000000000000009 69.500000000000014 1125.5000000000002
decision_type=2 2 2 2 2 2 2 2 2 2 2 10 2 2 8
left_child=1 5 -2 -4 12 6 -1 8 9 -6 -10 -12 -5 -9 -7
right_child=2 -3 3 4 7 14 -8 13 10 -11 11 -13 -14 -15 -16
leaf_value=-0.0048521969739499446 -0.046243723787215148 -0.033515211933153093 0.022706182251194147 -0.0019891079846137633 -0.0017053986305153751 0.016402134801585325 -0.02868293904886068 -0.045668801543838115 -0.025972036639449542 0.018180485568900635 0.011947917316036701 -0.052192098753829089 0.017503573384660423 -0.0063354358300714278 -0.0038068578520028661
leaf_weight=284.32366449106485 24.514533354900777 131.45053065521643 219.90160323772579 145.44822000246495 250.74989173654467 118.67695872671902 152.86055209999904 36.262661589309573 85.795103082433343 216.07536094076931 88.832897605374455 12.963500178419052 380.02017699088901 83.517619451507926 494.56740406015888
leaf_count=2771 309 3595 716 769 1363 686 2206 355 719 696 559 107 1686 632 3363
internal_value=-0.000151122 -0.00855068 0.00627811 0.00712542 0.00448918 -0.00542662 -0.0131846 -0.000681951 0.00253238 0.00749901 -0.00982719 0.00377986 0.0121081 -0.0182433 0.000104049
internal_weight=2725.96 1181.88 1544.08 1519.57 1299.67 1050.43 437.184 774.197 654.417 466.825 187.592 101.796 525.468 119.78 613.244
internal_count=20532 12621 7911 7602 6886 9026 4977 4431 3444 2059 1385 666 2455 987 4049
is_linear=0
shrinkage=0.05


Tree=21
num_leaves=16
num_cat=0
split_feature=9 15 7 53 47 13 54 50 29 12 11 7 52 32 50
split_gain=52.973 43.4679 27.9172 20.2801 16.8936 19.2022 16.1152 14.2452 13.733 13.5079 12.9439 12.8059 15.0784 12.1997 11.5011
threshold=0.36666667461395269 0.26138716936111456 10.708333492279055 8.4038600921630877 113.00000000000001 4.5141508579254159 10425.500000000002 2.5000000000000004 12.500000000000002 1.0000000180025095e-35 523.00000000000011 2.7083333730697636 202402245000.00003 1950.0000000000002 1.0000000180025095e-35
decision_type=2 2 2 2 2 2 2 2 8 2 2 2 2 8 2
left_child=1 2 3 -1 5 -2 -3 14 -8 11 -10 -7 13 -13 -5
right_child=4 6 -4 7 -6 9 8 -9 10 -11 -12 12 -14 -15 -16
leaf_value=-0.005735433859639291 0.038501581355987219 -0.0037927045929554448 -0.042198956365511978 -0.045288164908846323 -0.0098413090115135674 0.022918452887277053 0.013203146124238736 -0.035367178960068316 -0.038858755397585508 -0.0038677784421221094 0.052499860721838945 -0.027040715650001164 0.012099539055905356 0.02481156338582741 -0.0010330582557170149
leaf_weight=744.45807602629066 63.605552077293396 361.59215920977294 70.565243332879618 18.033035057596862 98.089894611388445 215.86985492147505 378.3549817064777 113.23724418692291 22.867639778181914 144.03751390893012 4.6686436943709841 47.818182481452823 316.62000451795757 14.871518978849052 78.976536861620843
leaf_count=7513 178 2128 2259 318 566 558 1826 1951 186 790 16 204 1139 49 851
internal_value=-0.000144554 -0.00511513 -0.0118512 -0.00960814 0.00974654 0.0121398 0.00388355 -0.0233209 0.010722 0.00987153 -0.0233693 0.0131965 0.00766367 -0.0147401 -0.00925961
internal_weight=2693.67 1792.75 1025.27 954.705 900.913 802.823 767.483 210.247 405.891 739.217 27.5363 595.18 379.31 62.6897 97.0096
internal_count=20532 17048 12892 10633 3484 2918 4156 3120 2028 2740 202 1950 1392 253 1169
is_linear=0
shrinkage=0.05


Tree=22
num_leaves=16
num_cat=0
split_feature=15 7 11 7 59 7 29 13 56 50 40 11 22 40 29
split_gain=47.4032 31.0728 25.4083 20.7582 25.4009 15.6135 19.6899 14.1626 15.9981 12.8725 17.3926 12.1218 19.2195 17.2842 16.7903
threshold=0.2115893363952637 8.0625000000000018 421.00000000000006 4.3666667938232431 1.5000000000000002 1.1250000000000002 7.5000000000000009 5.2659933567047128 2.5000000000000004 3.5000000000000004 15.500000000000002 483.00000000000006 6.5000000000000009 12.500000000000002 8.5000000000000018
decision_type=2 2 2 2 10 2 10 2 2 2 2 2 10 2 8
left_child=1 5 -2 4 11 6 -1 8 -6 -9 -11 12 13 -4 -15
right_child=2 -3 3 -5 7 -7 -8 9 -10 10 -12 -13 -14 14 -16
leaf_value=-0.003147217294890477 -0.046134153205215044 -0.031710811872556005 0.039542742859091665 -0.003816500552991953 -0.060820496766176672 0.00024881749904832217 -0.025069521714361977 0.013012475768859022 0.026377268516776464 0.0081077815332405209 -0.040740464290877326 0.0059237881629507988 -0.041474907487774125 -0.00097071125619327305 -0.066466124659547141
leaf_weight=243.3922321582213 23.380427388940006 122.20394028839655 20.425674024969339 374.726452562958 5.3798904027789822 587.69001120654866 176.84871369414032 514.07263322081417 236.31047347001731 54.002863924019039 27.502761585637927 172.74492026492953 43.30105191655457 52.119628911837935 12.047199636697767
leaf_count=2388 315 3565 74 2866 28 3983 2527 2169 737 294 218 734 292 243 99
internal_value=-0.000127808 -0.00790037 0.00559092 0.00639042 0.00975168 -0.00501353 -0.0123727 0.0142281 0.0244363 0.0100855 -0.00837527 -0.00271502 -0.0143834 -0.000515845 -0.0132674
internal_weight=2666.15 1130.13 1536.01 1512.63 1137.91 1007.93 420.241 837.269 241.69 595.578 81.5056 300.638 127.894 84.5925 64.1668
internal_count=20532 12463 8069 7754 4888 8898 4915 3446 765 2681 512 1442 708 416 342
is_linear=0
shrinkage=0.05


Tree=23
num_leaves=16
num_cat=0
split_feature=9 39 53 47 13 12 4 38 56 13 0 16 38 21 29
split_gain=48.721 36.4142 21.5703 15.4755 18.9897 13.736 13.3624 13.5943 13.3696 11.9771 11.4742 11.1774 10.4655 10.6447 11.8262
threshold=0.36666667461395269 0.082272361963987364 7.6346645355224618 113.00000000000001 4.5141508579254159 1.0000000180025095e-35 1.5000000000000002 565.00000000000011 28.500000000000004 8.0275807380676287 6.5000000000000009 5.5000000000000009 565.00000000000011 11.500000000000002 13.500000000000002
decision_type=2 2 2 2 2 2 2 2 2 2 2 2 2 8 10
left_child=1 2 -1 4 -2 -6 7 8 -3 -4 -8 -9 -5 -14 -15
right_child=3 6 9 12 5 -7 10 11 -10 -11 -12 -13 13 14 -16
leaf_value=-0.0052519739832267319 0.039184456518944741 0.0014922956966697671 -0.011438821115790952 -0.03676690235458846 0.01299527854255436 -0.004390729227581578 0.0093590252632328123 -0.070934288291582076 -0.031642642192000851 -0.02890482008044359 -0.057108652570497978 0.0052860422391870342 0.0084145927383488892 -0.079975021710829569 0.046619457833541024
leaf_weight=574.60946078971028 58.654272586107254 52.537910940125585 190.19326679967344 25.711672905832529 582.42655262351036 141.13549618702382 462.15598666202277 4.9334938414394847 72.387525115162134 202.82552929013036 6.5854569263756266 192.06263632839546 60.062052078545094 7.2819864898920041 2.4707836471498013
leaf_count=5940 178 383 2225 198 1950 790 2403 33 691 4166 95 1112 312 47 9
internal_value=-0.000118866 -0.00492162 -0.0114259 0.009502 0.0118221 0.00960402 0.00303848 -0.004805 -0.0177076 -0.0204525 0.00842521 0.00337721 -0.00949612 0.000547266 -0.0479034
internal_weight=2636.03 1758.29 967.628 877.743 782.216 723.562 790.663 321.922 124.925 393.019 468.741 196.996 95.5265 69.8148 9.75277
internal_count=20532 17048 12331 3484 2918 2740 4717 2219 1074 6391 2498 1145 566 368 56
is_linear=0
shrinkage=0.05


Tree=24
num_leaves=16
num_cat=0
split_feature=7 10 50 39 57 56 7 48 34 14 37 15 16 16 16
split_gain=46.4257 28.1723 26.6649 26.2393 20.5055 29.8807 17.3801 13.5691 15.5137 13.5701 14.3624 14.3134 13.3529 13.1541 12.3088
threshold=6.2916667461395273 1.0000000180025095e-35 2.5000000000000004 0.091168832033872618 0.10994505509734155 14.500000000000002 4.4500000476837167 4.5000000000000009 17.500000000000004 10533.500000000002 1223.5000000000002 0.076505016535520567 41.500000000000007 6.5000000000000009 235.50000000000003
decision_type=2 2 2 2 2 2 2 2 10 2 8 2 2 2 2
left_child=1 3 -2 4 5 -1 7 9 -9 10 -3 -11 -10 -5 -8
right_child=2 6 -4 13 -6 -7 14 8 12 11 -12 -13 -14 -15 -16
leaf_value=-0.0030152437960288478 -0.00080437041305500925 -0.057255505896394311 -0.025747471035548593 -0.036492892402933547 0.0073014241581549153 -0.030454034003429567 0.0021567802304332168 0.0046211427427776466 -0.057964907781004577 -0.038523595594214949 0.010352364392228496 0.02959289694919939 0.036177696284752758 0.0072553055052440836 -0.025715412831205698
leaf_weight=200.91493956372142 189.55667773867026 9.0158540718257409 246.45501346001402 17.910038771107793 116.37824461422861 196.02720696758479 297.86519837193191 532.80967512540519 4.0123900659382334 8.0142730139195901 61.033526986837387 204.60004205256701 61.473985151387751 422.82804195862263 45.686285363510251
leaf_count=1770 2148 51 4847 119 1008 2821 2015 2278 22 31 220 629 223 2037 302
internal_value=-1.0334e-05 0.00297032 -0.0149034 -0.00347122 -0.0111546 -0.0165657 0.00798914 0.0117091 0.0074438 0.020737 0.00165075 0.0270253 0.0304095 0.00547753 -0.00154973
internal_weight=2614.58 2178.57 436.012 954.058 513.32 396.942 1224.51 880.96 598.296 282.664 70.0494 212.614 65.4864 440.738 343.551
internal_count=20521 13526 6995 7755 5599 4591 5771 3454 2523 931 271 660 245 2156 2317
is_linear=0
shrinkage=0.05


Tree=25
num_leaves=16
num_cat=0
split_feature=7 4 0 50 15 51 27 40 32 53 42 53 11 0 15
split_gain=41.3812 29.3426 39.283 23.2268 18.8098 18.4383 15.256 14.1221 12.3339 12.1375 12.8344 12.0957 11.2677 10.9848 10.7653
threshold=6.2916667461395273 1.0000000180025095e-35 5.5000000000000009 2.5000000000000004 0.53144779801368724 1.5000000000000002 14.500000000000002 9.5000000000000018 1750.0000000000002 6.9209914207458505 3900.0000000000005 8.7443156242370623 425.00000000000006 4.5000000000000009 0.20050251483917239
decision_type=2 2 2 2 2 2 8 2 10 2 2 2 2 2 2
left_child=1 5 4 -2 6 11 -3 8 -8 -9 12 -1 -11 -14 -5
right_child=3 2 -4 14 -6 -7 7 9 -10 10 -12 -13 13 -15 -16
leaf_value=0.0037212792063060734 -0.0011018711110509494 0.01326338854506392 -0.020058942972348805 -0.034603704996799711 0.029898128827813494 -0.021110626531223413 -0.00048354979320901632 0.0082509836113393593 0.045900817320451343 -0.045301563133586117 -0.04897047297635683 -0.024025904973402779 0.0026929454295765379 -0.016457219189204134 -0.013350164076600574
leaf_weight=250.07744949497283 188.76522817043588 555.09473156929016 134.36664295103401 126.14174859621562 93.199002831242979 174.73105953168124 24.697915414348245 349.74648907035589 34.145870345644653 14.881972298957406 15.305072318762539 46.594393579289317 376.90106413140893 93.45106321759522 112.91300522210076
leaf_count=1672 2148 2797 1227 3381 295 2015 139 1668 140 160 139 504 2099 671 1466
internal_value=-3.77116e-06 0.00280632 0.00588025 -0.0142125 0.00811815 -0.00822555 0.00673184 0.00274382 0.0264324 0.00110446 -0.00388909 -0.000636611 -0.00246715 -0.00111187 -0.024565
internal_weight=2591.01 2163.19 1691.79 427.82 1557.42 471.403 1464.22 909.129 58.8438 850.286 500.539 296.672 485.234 470.352 239.055
internal_count=20521 13526 9335 6995 8108 4191 7813 5016 279 4737 3069 2176 2930 2770 4847
is_linear=0
shrinkage=0.05


Tree=26
num_leaves=16
num_cat=0
split_feature=9 15 11 54 53 12 7 37 28 7 37 29 54 11 56
split_gain=40.1127 31.2794 19.5033 17.8799 14.0951 13.7592 14.9795 12.8465 12.1333 13.296 12.0021 15.185 14.6587 12.9859 14.7057
threshold=0.22500000149011615 0.20231407135725024 431.00000000000006 10407.500000000002 7.7936103343963632 0.22500000149011615 2.7083333730697636 1117.5000000000002 11.500000000000002 4.6333332061767587 1570.5000000000002 7.5000000000000009 10385.500000000002 479.00000000000006 65.500000000000014
decision_type=2 2 2 2 2 2 2 10 8 2 10 10 2 2 2
left_child=1 2 -1 7 -4 6 -2 -3 9 -7 12 -12 13 14 -9
right_child=5 3 4 -5 -6 8 -8 10 -10 -11 11 -13 -14 -15 -16
leaf_value=-0.042301460776116108 0.021687814914511341 -0.035505465752625941 -0.0048304577386936607 0.0065454528068471006 -0.020527552150395461 -0.0026376174539467917 0.0064557848249947817 0.0030626631463107879 0.027526782280058417 -0.0441983892590826 -0.0060616761588381919 -0.048620849910222336 -0.024487296460355717 0.018651800671154378 -0.053303807470908099
leaf_weight=52.753965454176068 237.23368165642023 37.176430049352348 387.65590331191197 572.44651571847498 226.61012246459723 175.76946951821446 504.98590442351997 54.620896243490279 28.849655374884605 21.609810446389019 69.293354299850762 30.047279945574701 42.493833174929023 112.15317824995145 14.681682906579224
leaf_count=1248 675 324 4528 3536 4293 976 2222 407 140 236 459 294 396 607 180
internal_value=2.60217e-06 -0.00485888 -0.0131269 0.00105261 -0.0106213 0.00803405 0.0113244 -0.00767042 -0.00276089 -0.00718784 -0.00446955 -0.0189344 0.00194685 0.00813727 -0.00887852
internal_weight=2568.38 1599.93 667.02 932.913 614.266 968.449 742.22 360.467 226.229 197.379 323.29 99.3406 223.95 181.456 69.3026
internal_count=20521 16272 10069 6203 8821 4249 2897 2667 1352 1212 2343 753 1590 1194 587
is_linear=0
shrinkage=0.05


Tree=27
num_leaves=16
num_cat=0
split_feature=13 4 50 0 15 19 11 40 34 25 11 37 37 5 5
split_gain=37.9048 29.2305 22.1719 16.3402 16.0024 15.9175 13.2919 13.5577 13.2195 12.563 12.3001 12.235 15.9605 11.9307 11.5903
threshold=6.5310404300689706 1.0000000180025095e-35 3.5000000000000004 5.5000000000000009 0.53144779801368724 20.500000000000004 465.00000000000006 9.5000000000000018 16.500000000000004 1075.0000000000002 415.00000000000006 1353.5000000000002 1097.5000000000002 1.5000000000000002 4.5000000000000009
decision_type=2 2 2 2 2 10 2 2 10 8 2 10 10 2 2
left_child=4 10 3 6 5 -1 7 -3 -8 -5 -2 12 -10 -7 -14
right_child=1 2 -4 9 -6 13 8 -9 11 -11 -12 -13 14 -15 -16
leaf_value=0.0019123476939657627 -0.066177593235004745 0.033672798676958181 -0.016853852611331585 0.070086346318876655 0.023750946403370082 -0.021928782829506152 0.0047991942634754972 -0.0072849716218379192 0.040086199597349 -0.025204320261482806 -0.015810028109579446 0.041200743048906363 0.011363335779867492 0.023936552326385897 -0.057943416758707879
leaf_weight=715.53757883608341 12.571711229160426 21.654669580981135 189.72325085126795 3.6343082785606375 132.29914508480579 15.735312581062315 502.72257310524583 301.75781407533213 18.562819936312735 71.643627042882144 338.26320551079698 52.757677335292101 12.702560054138305 143.32629143819213 11.487769755534826
leaf_count=3732 365 136 2768 19 468 79 3507 2629 87 949 4696 246 94 629 117
internal_value=3.05799e-06 -0.00493566 -0.00118702 0.00179452 0.00754423 0.00509266 0.00362396 -0.00454257 0.00803889 -0.0206038 -0.0176149 0.0250911 0.00521168 0.0193993 -0.0215498
internal_weight=2544.38 1537.48 1186.65 996.924 1006.9 874.599 921.646 323.412 598.233 75.2779 350.835 95.5108 42.7531 159.062 24.1903
internal_count=20521 15613 10552 7784 4908 4440 6816 2765 4051 968 5061 544 298 708 211
is_linear=0
shrinkage=0.05


Tree=28
num_leaves=16
num_cat=0
split_feature=7 4 50 39 13 11 35 10 7 56 57 29 53 35 28
split_gain=35.8576 26.5483 20.3579 20.1017 17.4026 12.1819 12.2835 12.0464 16.4239 12.3684 14.2894 11.6053 11.0225 13.1943 16.096
threshold=6.7083332538604745 1.0000000180025095e-35 2.5000000000000004 0.25320513546466833 7.8083648681640634 421.00000000000006 7.5000000000000009 1.0000000180025095e-35 4.7083332538604745 23.500000000000004 0.095032840967178359 8.5000000000000018 6.9209914207458505 7.5000000000000009 7.5000000000000009
decision_type=2 2 2 2 2 2 10 2 2 2 2 8 2 10 10
left_child=1 4 -2 5 7 6 -3 9 -9 -1 -11 -7 -13 -14 -15
right_child=2 3 -4 -5 -6 11 -8 8 -10 10 -12 12 13 14 -16
leaf_value=0.0017821770111239911 -0.0017288577147623119 0.00074436928277237077 -0.025298110467500214 0.025711093373847711 -0.023276290387776684 0.007781538514666269 -0.06192989978836258 0.023328738858032449 -0.016092245585386748 -0.042400181257011511 -0.0031318097435861694 0.0068604588135989077 0.00042495827488834518 0.00056894594757914379 -0.036117415450408356
leaf_weight=112.42382967472076 169.04516141256317 17.743312300182883 200.02931944420561 112.12399750202894 136.19813805678859 970.72736107278615 13.975329332984982 81.497238086536527 39.097103243693709 46.627666216343641 46.043966530822217 247.90617079194635 214.48423200566322 52.846946015022695 68.851695543620735
leaf_count=734 2009 193 4573 366 2104 5214 144 341 296 502 300 1332 1535 389 517
internal_value=-9.96527e-05 0.00236076 -0.0145028 0.00525092 -0.0082682 0.00380495 -0.0268701 -0.00199207 0.0105483 -0.0093657 -0.0228897 0.00443073 -0.00113815 -0.00703644 -0.0201866
internal_weight=2529.62 2160.55 369.074 1698.66 461.888 1586.54 31.7186 325.69 120.594 205.095 92.6716 1554.82 584.089 336.183 121.699
internal_count=20549 13967 6582 9690 4277 9324 337 2173 637 1536 802 8987 3773 2441 906
is_linear=0
shrinkage=0.05


Tree=29
num_leaves=16
num_cat=0
split_feature=7 4 0 39 51 38 53 23 50 39 11 39 53 58 30
split_gain=32.9542 27.5062 29.7508 19.4017 17.3854 13.0025 11.9594 13.0829 11.9256 11.3843 12.7078 10.2868 9.8267 14.7048 10.0723
threshold=8.5500001907348651 1.0000000180025095e-35 6.5000000000000009 0.25320513546466833 1.5000000000000002 592.50000000000011 6.8762755393981942 1140.5000000000002 3.5000000000000004 0.17867118865251544 511.00000000000006 0.070052754133939757 7.0341906547546396 1.5000000000000002 1559.5000000000002
decision_type=2 2 2 2 2 2 2 8 2 2 2 2 2 2 10
left_child=1 4 3 8 5 6 9 -8 -3 10 -1 -2 14 -14 -10
right_child=11 2 -4 -5 -6 -7 7 -9 12 -11 -12 -13 13 -15 -16
leaf_value=-0.012775908487288585 -0.031368442862947689 0.0054659823827253743 -0.046631373928136322 0.025330720464075945 -0.02115300105237641 0.020175832718739233 0.012659576557111266 -0.022079661309452717 0.015018175451980247 0.046151795447728551 0.033343967120206396 -0.0068838756256480978 -0.0038110228549765759 -0.038056400653433915 -0.021281391494522541
leaf_weight=54.919250017032027 101.21374671044759 1454.4094087416306 28.249834079295397 111.00439379364252 184.58391029667109 55.438630709424615 34.400134986266494 127.74777554860339 73.475664446596056 16.040886638686061 20.515533583238721 74.454145117197186 96.892440674826503 46.338596700690687 25.827666124328971
leaf_count=443 3319 8175 491 373 2287 307 307 1333 536 47 92 1083 955 606 195
internal_value=-0.000107953 0.00146661 0.0042835 0.00507906 -0.00901127 -0.00175976 -0.00655458 -0.0147096 0.00375431 0.00790092 -0.00023297 -0.020991 -0.00651008 -0.0148902 0.00557707
internal_weight=2505.51 2329.84 1836.2 1807.95 493.646 309.062 253.624 162.148 1696.94 91.4757 75.4348 175.668 242.534 143.231 99.3033
internal_count=20549 16147 11331 10840 4816 2529 2222 1640 10467 582 535 4402 2292 1561 731
is_linear=0
shrinkage=0.05


Tree=30
num_leaves=16
num_cat=0
split_feature=7 7 13 50 7 56 43 25 14 8 11 13 4 35 1
split_gain=30.5524 22.9396 24.0217 18.476 18.429 14.002 13.1373 12.0388 12.8246 15.0614 11.7795 14.7571 13.4896 15.9032 13.4927
threshold=6.7083332538604745 1.1250000000000002 5.5164020061492929 2.5000000000000004 4.4500000476837167 56.500000000000007 2250.0000000000005 1950.0000000000002 10414.000000000002 15.500000000000002 475.00000000000006 7.9447224140167245 2.5000000000000004 8.5000000000000018 1500.0000000000002
decision_type=2 2 2 2 2 2 2 8 2 2 2 2 2 10 2
left_child=1 2 7 -2 6 10 -3 -1 -9 -10 11 12 13 14 -4
right_child=3 4 5 -5 -6 -7 -8 8 9 -11 -12 -13 -14 -15 -16
leaf_value=0.019257542914548783 -0.0014078103129585645 0.012356335827366463 -0.061400353747481408 -0.024076684389779626 -0.0019383909610447244 -0.023421216107267471 -0.04102583847027786 -0.082079306826172982 0.0043155207339053174 -0.098721869812761098 0.0012969060069403296 -0.029615858977403455 0.017711338352700681 0.0067671649898327886 -0.013916922460090268
leaf_weight=142.89456398412585 168.12681628530845 747.42465228913352 22.224646476097405 193.14773046295159 381.42024401947856 124.73904414381832 11.705867946147917 4.7914913967251769 120.55508019216359 3.6541214399039736 329.41772524081171 87.835125347599387 49.149819838814437 54.76223629526794 45.774109126999974
leaf_count=533 2009 2897 249 4573 2742 1494 82 32 628 33 2622 1559 285 404 407
internal_value=-8.41529e-05 0.00219988 -0.00338623 -0.0135272 0.00702805 -0.00820304 0.0115332 0.00926104 -0.00181213 0.00128425 -0.00498101 -0.0129429 -0.00442405 -0.0132864 -0.0294364
internal_weight=2487.62 2126.35 985.798 361.275 1140.55 713.903 759.131 271.895 129.001 124.209 589.164 259.746 171.911 122.761 67.9988
internal_count=20549 13967 8246 6582 5721 7020 2979 1226 693 661 5526 2904 1345 1060 656
is_linear=0
shrinkage=0.05


Tree=31
num_leaves=16
num_cat=0
split_feature=39 7 7 7 16 38 29 56 36 53 39 20 47 34 28
split_gain=29.2554 26.0984 19.8675 19.5842 18.6722 14.8945 13.1115 11.3762 9.42226 13.4538 9.29551 15.0701 10.1258 14.9271 10.8948
threshold=0.17867118865251544 8.5500001907348651 1.1250000000000002 4.4500000476837167 9.5000000000000018 565.00000000000011 5.5000000000000009 28.500000000000004 12.500000000000002 7.1266026496887216 0.13060200959444049 16.500000000000004 22.500000000000004 17.500000000000004 9.5000000000000018
decision_type=2 2 2 2 2 2 8 2 10 2 2 10 2 10 10
left_child=1 2 5 10 6 7 -2 -1 -6 -10 12 -12 14 -14 -4
right_child=4 -3 3 -5 8 -7 -8 -9 9 -11 11 -13 13 -15 -16
leaf_value=-0.0068758638695085722 -0.0029720196878600981 -0.021424513110931482 0.019948284540613273 -0.0036383898615770607 0.019907124086666367 -0.00060621454045066609 -0.085150731866273477 -0.02511317906376084 0.014774331987519899 -0.077697980902885988 0.027144902192567447 -0.048319161451384533 -0.003659771820327699 0.031691734331047494 -0.0045001951650783896
leaf_weight=209.35785541357473 14.612341972067954 162.4472852286417 188.4859718028456 528.04542597103864 271.50435701943934 448.72693714126945 7.2678608661517492 144.54933423548937 10.981029219925405 6.1285624094307414 105.15524711459875 7.0598712079226962 262.87857821770012 33.687167489901185 60.095814378932118
leaf_count=2128 72 4329 640 4738 1068 3523 70 1918 40 30 346 38 1237 125 247
internal_value=-8.37974e-05 -0.00215526 -0.000580727 0.00353222 0.0142632 -0.00665513 -0.030269 -0.0143247 0.0176392 -0.0183487 0.00929222 0.0223972 0.00659465 0.000355837 0.0140377
internal_weight=2460.98 2150.49 1988.04 1185.41 310.494 802.634 21.8802 353.907 288.614 17.1096 657.363 112.215 545.148 296.566 248.582
internal_count=20549 19269 14940 7371 1280 7569 142 4046 1138 70 2633 384 2249 1362 887
is_linear=0
shrinkage=0.05


Tree=32
num_leaves=16
num_cat=0
split_feature=15 51 50 16 36 13 23 8 4 55 37 11 37 15 0
split_gain=29.0573 20.4163 17.8246 14.5056 15.0218 13.7955 12.3212 11.0739 10.6969 10.6016 10.1198 10.1067 13.5873 12.7757 11.2821
threshold=0.21579768508672717 1.5000000000000002 3.5000000000000004 8.5000000000000018 8.5000000000000018 4.9154760837554941 1125.5000000000002 3.5000000000000004 1.0000000180025095e-35 0.50438597798347484 1252.5000000000002 541.00000000000011 1478.5000000000002 0.53144779801368724 6.5000000000000009
decision_type=2 2 2 2 8 2 10 2 2 2 10 2 10 2 2
left_child=2 3 6 4 -2 8 -1 -6 -3 11 -7 13 -13 14 -5
right_child=1 5 -4 9 7 10 -8 -9 -10 -11 -12 12 -14 -15 -16
leaf_value=0.0067542230320422865 -0.05337447033730322 -0.024994207185475615 -0.020704568554785169 0.0094697842542753232 -0.098232342324286515 -0.021467375174600553 -0.0067834754580111921 0.018630366540309796 0.02785201384350804 0.054176363761708812 -0.0027868021469589126 0.016260270241666843 -0.061752206430445079 0.029669287250530463 -0.035694024395612721
leaf_weight=225.40391036402434 18.489485498517752 11.783151194453238 177.3692683193367 747.40680218813941 2.2472213245928314 95.203675597906113 660.82847652118653 20.700792696326971 51.114526856690645 13.638731833547352 303.99007803853601 10.964602574706079 11.368336644023655 79.742496129125357 14.088247314095495
leaf_count=1848 130 76 3502 3884 16 785 7284 94 185 41 2136 57 70 278 160
internal_value=-2.47148e-05 0.00475994 -0.00623602 0.00907207 -0.019836 -0.00381267 -0.0033403 0.0071864 0.0179519 0.0104376 -0.00724193 0.00974684 -0.0234511 0.0106282 0.00863422
internal_weight=2444.34 1380.74 1063.6 918.647 41.4375 462.091 886.232 22.948 62.8977 877.209 399.194 863.57 22.3329 841.238 761.495
internal_count=20546 7912 12634 4730 240 3182 9132 110 261 4490 2921 4449 127 4322 4044
is_linear=0
shrinkage=0.05


Tree=33
num_leaves=16
num_cat=0
split_feature=9 39 11 7 29 53 42 53 54 4 51 42 15 24 40
split_gain=27.0976 28.3727 15.1711 14.4886 11.9453 11.0598 13.0981 10.8818 10.2294 9.29003 11.6843 10.9864 14.3788 10.3338 9.20509
threshold=0.22500000149011615 0.072509486228227629 417.00000000000006 10.708333492279055 1.5000000000000002 6.9096736907958993 6050.0000000000009 7.6346645355224618 10414.500000000002 2.5000000000000004 1.5000000000000002 1820.0000000000002 0.54631218314170849 1.5000000000000002 8.5000000000000018
decision_type=2 2 2 2 8 2 2 2 2 2 2 2 2 10 2
left_child=1 3 -3 7 -2 -6 14 -1 -4 10 -10 -11 13 -13 -7
right_child=4 2 8 -5 5 6 -8 -9 9 11 -12 12 -14 -15 -16
leaf_value=-0.0042433955559997147 0.024508846578738655 -0.05903056134775362 -0.0033743669621363773 -0.037030927090784448 0.012641767130142124 0.036000067903927166 -0.078580258102553535 -0.016985485579554902 0.010775153855094838 0.028057573595234916 -0.0097912728978171229 -0.069759627353255624 0.057831278730137305 -0.00035921285125958499 0.00011786844654348241
leaf_weight=435.09089734358713 85.836597392335534 9.8254508217796666 313.72475121589378 49.882926837075502 297.22519841697067 18.524388510733843 5.1719611734151831 272.49427737505175 202.93194766948 96.832397628575563 104.6850749431178 8.3235674574971235 6.7424174323678008 15.084509912878275 508.70119227189571
leaf_count=4512 343 184 2330 2044 1259 70 54 4565 1127 494 843 74 18 100 2529
internal_value=-3.97161e-05 -0.00414233 0.00269569 -0.0109865 0.00675249 0.00491534 0.000601853 -0.00915043 0.00350615 0.00847299 0.0037762 0.019851 -0.00650553 -0.025037 0.00137861
internal_weight=2431.08 1515.62 758.15 757.468 915.459 829.623 532.398 707.585 748.325 434.6 307.617 126.983 30.1505 23.4081 527.226
internal_count=20546 16291 5170 11121 4255 3912 2653 9077 4986 2656 1970 686 192 174 2599
is_linear=0
shrinkage=0.05


Tree=34
num_leaves=16
num_cat=0
split_feature=13 9 39 11 40 11 47 11 34 9 15 17 39 16 8
split_gain=24.5772 16.7991 14.9723 14.541 12.438 13.502 10.1032 10.0701 9.92117 9.8927 15.1088 10.363 10.2983 9.71582 9.57513
threshold=8.6684398651123065 0.63333335518836986 0.17867118865251544 459.00000000000006 10.500000000000002 421.00000000000006 102.50000000000001 543.00000000000011 10.500000000000002 0.45000000298023229 0.11791443824768068 1.5000000000000002 0.073606811463832869 7.5000000000000009 13.500000000000002
decision_type=2 2 2 2 2 2 2 2 8 2 2 10 2 2 2
left_child=1 2 4 -2 -1 -6 14 13 -8 11 -11 12 -5 -4 -3
right_child=3 6 7 9 5 -7 8 -9 -10 10 -12 -13 -14 -15 -16
leaf_value=0.010985437239039391 -0.028147909050854417 0.011638458852741725 -0.029631892943385904 -0.039025256673918644 -0.037992949064331615 -0.0033251480866916222 0.030266147719391203 -0.066781357768175301 -0.0069947063894469676 0.029006447873999981 -0.021709455340131543 -0.0035061034232274761 0.023684757485210973 0.015802656166163408 0.037823025449734773
leaf_weight=152.90118935704231 103.63318983954377 315.01464935392141 12.497742196545003 46.09596247645095 28.768723413115367 1182.92910834332 21.048312239348888 4.015031185001134 118.11411811690778 41.510135542601347 22.724739832803607 114.6237303649541 7.630576752126216 201.10051344893873 39.265374269336462
leaf_count=1221 2148 1158 89 931 600 10380 84 19 616 155 128 1964 69 858 126
internal_value=-2.95937e-05 0.00200179 -0.000510219 -0.0125704 -0.00245254 -0.00414825 0.0100565 0.0116696 -0.001359 -0.00562951 0.0110644 -0.0119992 -0.0301188 0.0131443 0.0145405
internal_weight=2411.87 2075.65 1582.21 336.218 1364.6 1211.7 493.442 217.613 139.162 232.585 64.2349 168.35 53.7265 213.598 354.28
internal_count=20546 15151 13167 5395 12201 10980 1984 966 700 3247 283 2964 1000 947 1284
is_linear=0
shrinkage=0.05


Tree=35
num_leaves=16
num_cat=0
split_feature=7 4 0 39 13 34 57 52 29 42 14 36 55 0 12
split_gain=24.3853 20.3452 22.6938 15.4391 13.9036 13.6754 12.9758 11.5863 11.31 10.3652 9.62753 10.0539 10.9218 9.28932 9.0613
threshold=6.2916667461395273 1.0000000180025095e-35 4.5000000000000009 0.17867118865251544 7.8012347221374521 10.500000000000002 0.11330480501055719 202402035000.00003 15.500000000000002 4750.0000000000009 10635.500000000002 15.500000000000002 0.4675105512142182 6.5000000000000009 0.22500000149011615
decision_type=2 2 2 2 2 8 2 2 10 2 2 10 2 2 2
left_child=1 4 3 8 -1 -2 10 -8 9 -3 11 12 13 -4 -12
right_child=5 2 6 -5 -6 -7 7 -9 -10 -11 14 -13 -14 -15 -16
leaf_value=-0.0016711399099899262 0.012524092253157013 0.0074888090025344968 -0.016572494672359259 0.021839066417909343 -0.021515068667170418 -0.015015615646390727 -0.018995747077046692 0.020323774870625033 -0.026954939728873445 -0.026421631009241289 0.0155951374721964 0.034068365532455382 0.044364990112363403 -0.059856688677099791 -0.10109507132329849
leaf_weight=302.71143561042845 51.91688028909266 969.51901815366 210.59151894040406 177.3734738342464 124.60377045441419 342.17778048850596 25.405891169793904 71.360911794938147 25.60643049236387 23.07087879255414 40.517370850779116 9.9767992049455625 6.986193284392356 13.17077014967799 1.73488413915038
leaf_count=2114 682 5352 1749 651 2071 6322 194 384 204 188 240 65 35 282 13
internal_value=-1.85467e-05 0.00221876 0.00484353 0.00822572 -0.00745757 -0.0113876 -0.00580481 0.0100005 0.00585423 0.00670062 -0.0112096 -0.0150734 -0.0171981 -0.0191202 0.0108038
internal_weight=2396.72 2002.63 1575.31 1195.57 427.315 394.095 379.744 96.7668 1018.2 992.59 282.978 240.725 230.748 223.762 42.2523
internal_count=20546 13542 9357 6395 4185 7004 2962 578 5744 5540 2384 2131 2066 2031 253
is_linear=0
shrinkage=0.05


Tree=36
num_leaves=16
num_cat=0
split_feature=7 40 11 15 0 10 56 30 57 39 56 39 17 11 15
split_gain=24.6983 16.8568 16.5934 14.0835 11.8242 11.3425 12.9909 12.5205 12.2832 11.9621 17.0485 24.9179 11.4039 10.4077 10.882
threshold=8.5500001907348651 10.500000000000002 421.00000000000006 0.32313497364521032 6.5000000000000009 1.0000000180025095e-35 14.500000000000002 1077.5000000000002 0.052435193210840232 0.048465391620993621 6.5000000000000009 0.10469207912683488 1.5000000000000002 505.00000000000006 0.263240396976471
decision_type=2 2 2 2 2 2 2 8 2 2 2 2 8 2 2
left_child=1 -1 -3 4 5 6 9 -7 -8 12 11 -11 -4 14 -9
right_child=-2 2 3 -5 -6 7 8 13 -10 10 -12 -13 -14 -15 -16
leaf_value=0.013474099585558784 -0.018907056797024979 -0.030784287041578352 -0.032956823298529933 0.0066903972298392698 -0.035372977191289547 0.032978760324252315 -0.031641373481868323 0.00091516681224256078 -0.0079150468451782956 0.028033237926418531 0.03002475992281637 -0.084662382291537136 -0.00030404224634934443 0.013925312194615215 -0.017148651346624865
leaf_weight=256.9567266558297 160.02481225784868 43.217220211867243 34.104015009477735 627.30339832231402 26.695732393767685 31.251817923039198 81.974310160148889 528.10095742251724 163.05232257349417 10.692374184727671 58.789903296157718 9.0621023941785079 123.82712645456195 123.83606442809105 99.004203138872981
leaf_count=1581 4402 745 438 2851 515 158 1355 3784 1810 73 354 89 1038 755 589
internal_value=6.35801e-05 0.00143236 -0.000145583 0.000544892 -0.00244265 -0.00174699 -0.00778455 0.00196961 -0.0158528 0.000575395 0.0165216 -0.0236644 -0.00735516 0.000679105 -0.00193666
internal_weight=2377.89 2217.87 1960.91 1917.69 1290.39 1263.7 481.502 782.193 245.027 236.476 78.5444 19.7545 157.931 750.941 627.105
internal_count=20537 16135 14554 13809 10958 10443 5157 5286 3165 1992 516 162 1476 5128 4373
is_linear=0
shrinkage=0.05


Tree=37
num_leaves=16
num_cat=0
split_feature=4 0 15 38 53 11 0 5 11 29 36 50 19 57 38
split_gain=22.4855 20.037 14.8085 12.1919 13.3435 12.5694 12.1811 11.2964 11.1448 11.0058 10.7899 10.2084 13.2203 9.78624 10.7074
threshold=1.0000000180025095e-35 4.5000000000000009 0.53144779801368724 592.50000000000011 6.8762755393981942 511.00000000000006 6.5000000000000009 1.5000000000000002 465.00000000000006 16.500000000000004 8.5000000000000018 2.5000000000000004 20.500000000000004 0.13976744562387469 565.00000000000011
decision_type=2 2 2 2 2 2 2 2 2 10 8 2 10 2 2
left_child=3 2 8 4 5 11 7 -3 -2 -10 -6 -1 -13 -9 -15
right_child=1 6 -4 -5 10 -7 -8 13 9 -11 -12 12 -14 14 -16
leaf_value=0.004628141849039917 -0.001892215407570145 -0.030548329510374596 0.027219714719826166 0.010792483205788728 -0.010245854360967477 0.032768651943221337 -0.038198103499818302 -0.005150653236264402 0.0083033234302830935 -0.056928056499454427 -0.029281859920324196 -0.040964387649353048 0.027192288645046893 -0.012919156989650481 0.031541854162331046
leaf_weight=76.139789688400924 455.20522155589424 37.430852464865893 75.336342381313443 66.876471385359764 184.74408623669297 24.988548365421593 28.203451263718307 336.54418754694052 843.16815493418835 6.5161591442301861 124.67697855900042 32.687099375762045 9.0943667385727149 20.362679992802441 40.423793816007674
leaf_count=652 3986 393 275 445 2426 138 692 3204 5116 66 2263 413 70 179 219
internal_value=5.7086e-05 0.00264607 0.00566533 -0.00913384 -0.0120799 0.00055641 -0.00635516 -0.00428948 0.00442091 0.00780307 -0.0179162 -0.00626965 -0.0261291 -0.00181574 0.016648
internal_weight=2362.4 1843.19 1380.23 519.207 452.331 142.91 462.965 434.762 1304.89 849.684 309.421 117.921 41.7815 397.331 60.7865
internal_count=20537 14130 9443 6407 5962 1273 4687 3995 9168 5182 4689 1135 483 3602 398
is_linear=0
shrinkage=0.05


Tree=38
num_leaves=16
num_cat=0
split_feature=7 29 50 50 40 14 30 53 30 19 46 40 4 30 1
split_gain=22.574 17.208 14.8018 13.0673 11.1913 10.0105 9.83942 13.1485 11.446 11.4909 15.6742 9.60981 9.08589 10.7056 9.36229
threshold=6.0999999046325692 8.5000000000000018 3.5000000000000004 2.5000000000000004 8.5000000000000018 10627.500000000002 1577.5000000000002 6.8899888992309579 1562.5000000000002 20.500000000000004 2.5000000000000004 16.500000000000004 4.0000000000000009 1346.5000000000002 1650.0000000000002
decision_type=2 8 2 2 2 2 8 2 8 10 10 2 2 8 2
left_child=1 4 6 12 -1 -6 7 8 9 -3 11 -11 14 -14 -2
right_child=3 2 -4 -5 5 -7 -8 -9 -10 10 -12 -13 13 -15 -16
leaf_value=0.030687985498485833 -0.020496870078841184 0.0014811715724318262 -0.022010860723299719 -0.019499816681880229 0.0026263121260794412 0.01412814607546758 0.0071303408442865606 -0.012881681142425425 -0.076287959347864642 0.062680642764585931 -0.065637697018828892 -0.038875397825883888 0.042424975864556902 -0.0071909520837074546 0.006164434708855894
leaf_weight=43.568374769762158 67.670018997043371 115.35106234997511 97.672520650550723 208.41121334186755 961.28847041679546 235.52350010676309 230.38868581876159 248.33501381380484 4.1074812151491633 21.322909627109773 3.2372772730886927 2.6150775142014018 22.842183640226722 20.7465940406546 64.135003390721977
leaf_count=208 978 705 1214 4875 6306 1229 1551 2133 36 82 30 14 200 259 717
internal_value=5.42053e-05 0.00222215 -0.00390882 -0.0110362 0.00579595 0.00488979 -0.00108152 -0.00587156 0.00600058 0.00837206 0.0376219 0.0515863 -0.000979375 0.0188097 -0.00752375
internal_weight=2347.22 1963.41 723.03 383.805 1240.38 1196.81 625.358 394.969 146.634 142.526 27.1753 23.938 175.394 43.5888 131.805
internal_count=20537 13508 5765 7029 7743 7535 4551 3000 867 831 126 96 2154 459 1695
is_linear=0
shrinkage=0.05


Tree=39
num_leaves=16
num_cat=0
split_feature=7 7 13 7 50 42 8 3 54 8 36 40 11 35 56
split_gain=21.0527 14.6869 12.3653 12.1842 11.7106 10.3145 10.0421 9.77656 13.0487 11.753 17.5568 9.57027 10.8923 9.59474 10.2426
threshold=6.0999999046325692 1.1250000000000002 6.502450942993165 2.7083333730697636 2.5000000000000004 12500.000000000002 15.500000000000002 1.5000000000000002 10493.500000000002 5.5000000000000009 7.5000000000000009 11.500000000000002 475.00000000000006 7.5000000000000009 10.500000000000002
decision_type=2 2 2 2 2 2 2 2 2 2 8 2 2 10 2
left_child=1 2 6 -3 -2 -5 7 8 9 -1 -11 -4 -13 14 -14
right_child=4 3 11 5 -6 -7 -8 -9 -10 10 -12 12 13 -15 -16
leaf_value=0.028612765468292358 -0.0012299183802030099 0.015055227362939391 0.009757055138354058 0.0033142962793587861 -0.018864561226124264 -0.07860069341923194 -0.044428129174799123 -0.0024593270808660507 -0.059381061337842794 0.017653904297726102 -0.026098917015357173 -0.019194086208980818 0.020522864655546709 -0.016083141751450314 -0.0060008257307518718
leaf_weight=89.225526254624128 174.59205400617793 284.37127477582544 68.246486922260374 741.09304465958849 204.30902121355757 3.8629700075834981 10.470939688384531 207.74475818965584 6.0431712623685589 73.665557086467743 33.289862210862339 194.80686491448432 59.570674731396139 92.429065415170044 93.572738263756037
leaf_count=393 2154 1046 658 4173 4875 47 92 1106 51 336 214 2896 466 986 1044
internal_value=4.95574e-05 0.00213684 -0.0024208 0.00625053 -0.0107388 0.00288953 0.0039237 0.00515864 0.0129846 0.0152137 0.00403584 -0.00766528 -0.0103653 -0.00336154 0.00431652
internal_weight=2337.29 1958.39 929.066 1029.33 378.901 744.956 420.44 409.969 202.224 196.181 106.955 508.626 440.379 245.572 153.143
internal_count=20537 13508 8242 5266 7029 4220 2192 2100 994 943 550 6050 5392 2496 1510
is_linear=0
shrinkage=0.05


Tree=40
num_leaves=16
num_cat=0
split_feature=7 50 59 55 29 11 11 32 51 42 12 51 32 29 53
split_gain=19.7441 14.5642 16.0275 15.9193 16.8168 12.643 11.4202 11.3044 12.7412 11.2109 11.2743 12.2559 14.4842 11.3723 11.0702
threshold=10.708333492279055 3.5000000000000004 2.5000000000000004 0.20977697521448138 14.500000000000002 435.00000000000006 503.00000000000006 1500.0000000000002 1.5000000000000002 1245.0000000000002 0.22500000149011615 1.5000000000000002 1500.0000000000002 1.5000000000000002 7.0341906547546396
decision_type=2 2 8 2 10 2 2 10 2 2 2 2 8 8 2
left_child=1 2 6 -4 7 -3 9 8 -5 10 11 12 -1 -14 -7
right_child=-2 5 3 4 -6 14 -8 -9 -10 -11 -12 -13 13 -15 -16
leaf_value=0.027807953638655427 -0.025132430082204411 -0.043880536809141828 -0.012240236875866417 0.0057320184610657578 -0.046231255403556742 0.0056477256471570703 0.014979480632121338 0.010310160669226045 -0.026748835085427348 -0.0060022711087682088 -0.018289221371200492 0.00018150804989838261 0.036036378553087119 0.0030026721352231123 -0.013835849740028812
leaf_weight=127.57036523101851 75.828280579531565 23.962196841370314 298.97901182807982 72.695926676504314 16.791856438852847 120.26014211447909 274.38570527499542 284.99264554702677 51.639350445475429 237.44157648412511 42.658302559517324 271.61774343485013 29.658596873283386 214.36372734233737 185.14516191650182
leaf_count=674 2590 524 3159 494 185 1032 1491 1852 529 1773 291 2034 106 1261 2570
internal_value=-3.77254e-05 0.000807191 0.00247132 -0.00339562 0.00281004 -0.00890773 0.00602323 0.00482186 -0.00775804 0.00336165 0.00660336 0.00825426 0.0141551 0.00701761 -0.00616376
internal_weight=2327.99 2252.16 1922.79 725.099 426.12 329.368 1197.7 409.328 124.335 923.31 685.869 643.21 371.593 244.022 305.405
internal_count=20565 17975 13849 6219 3060 4126 7630 2875 1023 6139 4366 4075 2041 1367 3602
is_linear=0
shrinkage=0.05


Tree=41
num_leaves=16
num_cat=0
split_feature=39 7 13 0 30 11 4 53 13 37 29 11 37 57 14
split_gain=20.1109 14.7089 12.5566 14.3991 13.2505 10.9876 12.7933 12.6407 10.228 10.0299 10.7272 10.5124 10.4495 9.42689 9.37535
threshold=0.043614130467176444 7.5499999523162851 4.8257577419281015 5.5000000000000009 2281.5000000000005 507.00000000000006 1.0000000180025095e-35 8.9328827857971209 9.1545929908752459 2034.5000000000002 10.500000000000002 525.00000000000011 1401.5000000000002 0.034139472991228111 10515.500000000002
decision_type=2 2 2 2 10 2 2 2 2 8 10 2 10 2 2
left_child=1 -1 -2 5 8 6 7 13 -5 10 -7 -11 -12 -4 -14
right_child=2 -3 3 4 -6 9 -8 -9 -10 11 12 -13 14 -15 -16
leaf_value=-0.0046995336261300103 0.015966609163607922 -0.028167226642303041 0.014112069508093288 -0.02927539316511852 0.019732353862313576 0.022107720278435012 0.0033550641261754183 -0.050250812568162009 0.046003700923252649 0.0084143721710936269 -0.039205103867802717 -0.054500242783443377 -0.060136371193616416 -0.012414690108988135 0.025887159351189005
leaf_weight=599.13956305198371 166.30562317557633 75.143826904706657 43.021923335734755 80.166802261024714 20.518388893455267 166.49574770778418 920.58497283002362 18.078369301278144 4.7812201105989507 17.658373614773158 15.285428081639109 10.640280470252035 3.7153292261064079 151.19499589921907 21.473739217966795
leaf_count=5970 687 2652 429 1014 149 889 6183 379 52 113 139 84 37 1683 105
internal_value=-4.58174e-05 -0.00731483 0.00294297 0.00147318 -0.0163283 0.00284544 0.00080349 -0.010261 -0.0250384 0.012678 0.0164953 -0.0152415 -0.00659178 -0.00653862 0.0131989
internal_weight=2314.2 674.283 1639.92 1473.62 105.466 1368.15 1132.88 212.295 84.948 235.269 206.97 28.2987 40.4745 194.217 25.1891
internal_count=20565 8622 11943 11256 1215 10041 8674 2491 1066 1367 1170 197 281 2112 142
is_linear=0
shrinkage=0.05


Tree=42
num_leaves=16
num_cat=0
split_feature=11 15 7 7 7 14 25 53 50 53 50 35 37 29 27
split_gain=17.5972 15.7562 13.0414 9.76082 10.339 10.8073 15.9129 10.0195 9.30052 12.7816 9.89271 10.9986 9.28968 11.2641 9.22791
threshold=421.00000000000006 0.2115893363952637 10.708333492279055 4.3666667938232431 1.1250000000000002 10507.500000000002 1950.0000000000002 9.1183471679687518 2.5000000000000004 7.6828095912933358 1.0000000180025095e-35 3.5000000000000004 1478.5000000000002 1.5000000000000002 9.5000000000000018
decision_type=2 2 2 2 2 2 8 2 2 2 2 8 8 8 8
left_child=12 2 8 4 5 6 -3 -6 10 -10 -2 -12 -1 -14 -7
right_child=1 3 -4 -5 7 14 -8 -9 9 -11 11 -13 13 -15 -16
leaf_value=-0.050192630292699103 -0.019605637623552639 -0.0037466274830802362 -0.032458523698705874 -0.0033238672558166121 0.013269007391313512 -0.02962069176317372 -0.061054811367639322 -0.050463092732165864 -0.0017064235085213174 -0.019489981275063128 -0.010507850863646348 0.008568520783321246 0.066730609227015139 -0.022186766050229709 0.0062312146304396021
leaf_weight=25.665225954726338 48.707041095942259 56.772151390090585 39.417587122065015 326.25487954262644 432.95908740162849 18.691049926914275 15.398634521290658 6.2560325386002651 268.26840287307277 162.08507359563373 98.136395264882594 328.42752800509334 4.2362911058589843 22.368365871254355 451.55134802591056
leaf_count=624 818 394 1827 2873 1662 125 151 32 2802 2837 890 2473 29 502 2526
internal_value=-5.12007e-05 0.00061421 -0.00430483 0.00416858 0.00665878 0.00204126 -0.0159741 0.0123612 -0.00307944 -0.00840429 0.00174217 0.00417976 -0.0287316 -0.00802835 0.00480618
internal_weight=2305.2 2252.93 945.042 1307.88 981.628 542.413 72.1708 439.215 905.624 430.353 475.271 426.564 52.2699 26.6047 470.242
internal_count=20565 19410 11647 7763 4890 3196 545 1694 9820 5639 4181 3363 1155 531 2651
is_linear=0
shrinkage=0.05


Tree=43
num_leaves=16
num_cat=0
split_feature=39 9 11 16 47 54 29 16 15 30 39 15 36 11 0
split_gain=15.4052 15.8894 13.0352 12.0638 11.3249 9.4354 9.9926 9.43321 9.18583 9.16217 10.0919 19.4045 10.0316 10.6224 8.78072
threshold=0.13373984396457675 0.22500000149011615 459.00000000000006 6.5000000000000009 22.500000000000004 10362.000000000002 8.5000000000000018 41.500000000000007 0.33708292245864874 1571.5000000000002 0.10373864322900773 0.3558353334665299 12.500000000000002 443.00000000000006 6.5000000000000009
decision_type=2 2 2 2 2 2 8 2 2 8 2 2 10 2 2
left_child=1 2 8 -2 9 6 7 -4 -1 10 12 -12 -3 -14 -7
right_child=3 4 5 -5 -6 14 -8 -9 -10 -11 11 -13 13 -15 -16
leaf_value=-0.012748493828511204 -0.037211425401347246 0.01441942215877522 0.016496873632949337 0.0083826096124308812 -0.0019358211981621782 0.0010502602962314243 -0.0284681182763677 -0.016697314622190554 -0.050155687325348156 0.024797201773082728 -0.062295275824931745 0.033332795602172928 0.033416991767529457 -0.041413745605210314 -0.034532183811574628
leaf_weight=283.12635264219716 14.90417838655412 144.99931449629366 36.969649419188499 545.77851922530681 366.39240273972973 612.02658958360553 66.015677462564781 50.830816046334803 17.421320070512593 87.867204903624952 14.022714840248229 8.5328474715352041 6.5597707629203823 17.117997759953141 17.843476830516011
leaf_count=4956 133 635 372 2583 2147 6707 1019 753 208 336 82 31 30 102 471
internal_value=-3.17824e-05 -0.00236641 -0.006064 0.00717062 0.00384444 -0.0026689 -0.013771 -0.00272042 -0.0149168 0.0114326 0.00529182 -0.0261188 0.00949206 -0.0206824 4.22516e-05
internal_weight=2290.41 1729.73 1084.23 560.683 645.492 783.686 153.816 87.8005 300.548 279.1 191.233 22.5556 168.677 23.6778 629.87
internal_count=20565 17849 14486 2716 3363 9322 2144 1125 5164 1216 880 113 767 132 7178
is_linear=0
shrinkage=0.05


Tree=44
num_leaves=16
num_cat=0
split_feature=7 4 0 39 14 13 25 12 53 11 7 7 57 56 47
split_gain=17.2571 13.2811 15.4495 10.8513 10.9016 10.5482 9.335 8.91953 7.82917 10.959 8.06561 14.9102 11.762 10.888 7.922
threshold=11.125000000000002 1.0000000180025095e-35 5.5000000000000009 0.027614379301667217 30178.000000000004 4.8257577419281015 1075.0000000000002 1.0000000180025095e-35 6.8762755393981942 511.00000000000006 0.58333334326744091 4.7083332538604745 0.035346174612641341 28.500000000000004 3.5000000000000004
decision_type=2 2 2 2 2 2 8 2 2 2 2 2 2 2 2
left_child=1 8 3 4 -3 -5 -4 -7 9 -1 13 12 -12 14 -10
right_child=-2 2 6 5 -6 7 -8 -9 10 -11 11 -13 -14 -15 -16
leaf_value=-0.0037438990582541985 -0.028335541378939039 -0.0088856520420248913 0.057990260781628611 0.020461882424177621 0.024328275629524481 0.0062303227515025103 -0.015717496190938623 -0.0061421162445054181 -0.030545145084102939 0.030586850068162516 0.043237297823496404 -0.016642490888862545 -0.00030686061327121848 -0.034845362811693724 0.0015380101926084728
leaf_weight=129.86038183467463 52.415139581775293 229.88635063054971 4.4384350730106226 113.62513369508088 27.67992854770273 1068.313430325361 133.52091333619319 168.66950549045578 27.545671604573727 28.314272932708263 23.01673623546958 92.170746126677841 47.53896804060787 65.509924508165568 63.816854651551694
leaf_count=1164 2018 2304 23 458 137 7178 1759 1092 396 146 99 1564 264 1211 757
internal_value=2.18595e-05 0.000690213 0.00271137 0.00408889 -0.00531624 0.00588249 -0.0133462 0.00454327 -0.00669658 0.00240152 -0.0111994 -0.00340054 0.0138981 -0.0192893 -0.00813502
internal_weight=2276.32 2223.91 1746.13 1608.17 257.566 1350.61 137.959 1236.98 477.774 158.175 319.599 162.726 70.5557 156.872 91.3625
internal_count=20570 18552 12951 11169 2441 8728 1782 8270 5601 1310 4291 1927 363 2364 1153
is_linear=0
shrinkage=0.05


Tree=45
num_leaves=16
num_cat=0
split_feature=9 39 13 30 50 5 16 12 11 27 35 16 40 37 55
split_gain=15.0086 17.3411 10.5181 10.8196 9.99314 11.524 11.2458 9.07768 8.64503 10.2388 9.96021 8.54832 11.7422 8.92204 10.378
threshold=0.22500000149011615 0.048465391620993621 4.5141508579254159 1077.5000000000002 3.5000000000000004 7.5000000000000009 29.500000000000004 1.0000000180025095e-35 511.00000000000006 17.500000000000004 8.5000000000000018 42.500000000000007 9.5000000000000018 1336.5000000000002 0.40108695626258856
decision_type=2 2 2 10 2 2 2 2 2 10 8 2 2 10 2
left_child=1 -1 -2 -4 11 6 -6 -5 9 -9 -10 13 -13 14 -3
right_child=2 4 3 7 5 -7 -8 8 10 -11 -12 12 -14 -15 -16
leaf_value=-0.010646239914005024 0.027044090083410757 0.0017914604157944392 0.036910597295293245 0.0058630110809571399 -0.037514428169518353 -0.049194703263776174 0.0011029783446432522 -0.01713399341923166 0.028419564516217383 0.023841434016497031 -0.035316792491872667 0.025545669947493729 -0.0026659934557456111 0.016892145810715683 -0.067439639844355762
leaf_weight=497.57429091236554 52.12995944544673 72.028845585882664 24.012574898079038 586.71476491168141 23.01748148817569 17.468899231171235 104.1803285330534 129.42411133553833 28.807044929824769 17.281065272167325 7.7864415422081938 39.96941976621747 477.74330240767449 177.25174304889515 5.8530208785086861
leaf_count=8139 228 545 93 2660 305 286 1422 979 135 99 57 255 4250 1075 42
internal_value=1.9809e-05 -0.00313012 0.00528766 0.00385929 0.000945929 -0.0111149 -0.00588516 0.0028286 -0.00688415 -0.0123073 0.0148576 0.00320356 -0.000487944 0.0106943 -0.00341143
internal_weight=2261.24 1415.09 846.156 794.026 917.513 144.667 127.198 770.013 183.299 146.705 36.5935 772.846 517.713 255.134 77.8819
internal_count=20570 16319 4251 4023 8180 2013 1727 3930 1270 1078 192 6167 4505 1662 587
is_linear=0
shrinkage=0.05


Tree=46
num_leaves=16
num_cat=0
split_feature=7 40 50 30 35 42 15 30 16 57 40 20 51 37 27
split_gain=15.2343 11.7104 9.091 10.3495 10.8553 8.61746 9.28199 11.1673 9.02082 11.4225 8.26138 8.11441 8.00678 14.0927 15.5999
threshold=11.125000000000002 10.500000000000002 3.5000000000000004 2293.5000000000005 8.5000000000000018 4750.0000000000009 0.33386924862861639 1348.5000000000002 43.500000000000007 0.10994505509734155 15.500000000000002 11.500000000000002 1.5000000000000002 1261.5000000000002 13.500000000000002
decision_type=2 2 2 8 10 2 2 10 2 2 2 10 2 8 8
left_child=1 -1 12 4 5 6 -4 -8 9 -9 -6 -12 -3 -14 -15
right_child=-2 2 3 -5 10 -7 7 8 -10 -11 11 -13 13 14 -16
leaf_value=0.010841005500043428 -0.027092698450197024 0.0034543473745400942 -0.0052661071956500464 -0.040868003008386181 -0.0065601132097106527 -0.07654958609117761 -0.021158192039486975 -0.054236162637813973 0.045289409735072068 0.069721885881018394 0.013149771212397991 -0.050221895654177853 -0.015711058585441591 -0.015492636563234036 0.0061255816781888208
leaf_weight=250.07022461062297 50.604528289521113 1035.2524379566312 123.28110777982511 23.34903909265995 41.259256371296942 3.5426566600799552 12.575347559526561 5.6034455224871618 31.223973633721471 2.7807219922542572 6.090405252762138 29.608029190916568 175.89160036714748 109.77922002132982 347.93144087167457
leaf_count=1815 2018 6974 2069 346 540 57 99 32 135 8 77 519 1837 1035 3009
internal_value=3.0693e-05 0.000655087 -0.000652395 -0.00900122 -0.00609434 0.000657019 0.00221583 0.0198916 0.0329246 -0.0131238 -0.0217983 -0.0394102 0.000744937 -0.00368201 0.000940579
internal_weight=2248.84 2198.24 1948.17 279.314 255.965 179.007 175.465 52.1835 39.6081 8.38417 76.9577 35.6984 1668.85 633.602 457.711
internal_count=20570 18552 16737 3882 3536 2400 2343 274 175 40 1136 596 12855 5881 4044
is_linear=0
shrinkage=0.05


Tree=47
num_leaves=16
num_cat=0
split_feature=4 0 7 39 5 39 36 23 40 39 13 47 30 50 57
split_gain=13.6207 13.1291 11.2687 9.84788 10.535 8.39229 9.52934 9.04772 7.68989 15.1127 8.17762 8.39671 12.9049 17.4466 10.0255
threshold=1.0000000180025095e-35 6.5000000000000009 8.5500001907348651 0.070052754133939757 7.5000000000000009 0.18196869641542437 7.5000000000000009 1569.5000000000002 9.5000000000000018 0.16892262548208239 9.8736701011657733 22.500000000000004 1578.5000000000002 3.5000000000000004 0.034139472991228111
decision_type=2 2 2 2 2 2 10 10 2 2 2 2 10 2 2
left_child=-1 2 5 -4 -5 8 -7 -8 9 -2 11 12 -10 14 -14
right_child=1 -3 3 4 -6 6 7 -9 10 -11 -12 -13 13 -15 -16
leaf_value=-0.0073340162538732588 0.020524377518204115 -0.034197782922714241 -0.030609710953410085 -0.010602780249644589 0.048068441943685952 0.01840798165012137 -0.026699167980889928 0.029764376065084794 0.0021509738478890455 -0.068104952269159955 -0.021588429347563064 -0.0014641551187702289 -0.00064013211031011083 -0.029095270127611064 0.033693523416828512
leaf_weight=490.99168315087445 91.511053235270083 24.582354401936755 46.512857987545431 34.923819542396814 9.7975878692232055 160.69646659865975 24.721395742148161 9.950590603053568 407.3931716545485 5.0766274705529204 38.051282647997141 763.28329942096025 27.269560084678233 16.169407598674297 96.515942920930684
leaf_count=6425 550 693 1901 589 109 653 128 38 2658 28 465 5560 175 167 431
internal_value=2.81756e-05 0.00208617 0.00260119 -0.014502 0.00225094 0.00355228 0.0132787 -0.0104946 0.00223749 0.015866 0.00126146 0.00192486 0.00665088 0.0197496 0.0261299
internal_weight=2247.45 1756.46 1731.87 91.2343 44.7214 1640.64 195.368 34.672 1445.27 96.5877 1348.68 1310.63 547.348 139.955 123.786
internal_count=20570 14145 13452 2599 698 10853 819 166 10034 578 9456 8991 3431 773 606
is_linear=0
shrinkage=0.05


Tree=48
num_leaves=16
num_cat=0
split_feature=7 7 39 4 53 42 34 29 11 52 23 22 30 11 53
split_gain=13.0631 17.8257 11.6619 10.1827 14.4695 9.23235 13.4431 10.8225 10.8067 12.6495 11.2015 11.0334 12.7562 10.8099 9.15281
threshold=4.4500000476837167 1.1250000000000002 0.17867118865251544 4.0000000000000009 6.2529070377349862 1245.0000000000002 16.500000000000004 1.5000000000000002 503.00000000000006 202402635000.00003 1105.5000000000002 10.500000000000002 1469.5000000000002 465.00000000000006 7.2701351642608651
decision_type=2 2 2 2 2 2 10 10 2 2 10 10 10 2 2
left_child=1 2 -1 -2 -5 7 8 -3 9 -7 -10 12 -11 -14 -8
right_child=3 5 -4 4 -6 6 14 -9 10 11 -12 -13 13 -15 -16
leaf_value=-0.0047782099586133062 -0.0095502324240326619 0.034586959049141525 0.010298336454240418 0.039320377808541501 -0.0015302738651367677 -0.066186266124407242 0.056068718663290343 0.0095648903656305115 -0.09110284223248015 -0.024558336149369732 0.021474786376872067 -0.044659181408855803 -0.035744519858880719 0.031711113640132398 -0.0084162493852263567
leaf_weight=741.8965328335762 494.05759017192759 47.677758939564228 155.07399168517441 25.599184824619442 141.47371030412614 11.375038919970391 15.263914968818428 461.54803611151874 2.3530618622899047 31.416870221495628 36.242029225453734 18.306660378351808 7.3788256626576176 30.44016594812274 8.6047904361039382
leaf_count=7572 7300 176 677 192 1824 77 51 1935 15 195 157 118 55 136 51
internal_value=-4.74035e-05 0.00243857 -0.00217168 -0.00594178 0.00472893 0.008605 -0.00181627 0.0119077 -0.00782851 -0.0165839 0.0146112 -0.0101387 -0.00101114 0.0185499 0.0328216
internal_weight=2228.71 1567.58 896.971 661.13 167.073 670.607 161.381 509.226 137.513 98.9176 38.5951 87.5425 69.2359 37.819 23.8687
internal_count=20531 11215 8249 9316 2016 2966 855 2111 753 581 172 504 386 191 102
is_linear=0
shrinkage=0.05


Tree=49
num_leaves=16
num_cat=0
split_feature=11 29 37 15 50 50 21 35 21 15 41 11 51 4 11
split_gain=12.0315 11.1002 10.6238 10.4954 8.72089 8.84462 9.23449 9.00455 9.26141 8.50748 8.32679 8.42356 7.93806 9.43763 9.27407
threshold=421.00000000000006 1.5000000000000002 1449.5000000000002 0.2115893363952637 2.5000000000000004 1.0000000180025095e-35 1.5000000000000002 3.5000000000000004 7.5000000000000009 0.1578004136681557 6.5000000000000009 427.00000000000006 1.5000000000000002 2.5000000000000004 517.00000000000011
decision_type=2 10 8 2 2 2 10 8 10 2 2 2 2 2 2
left_child=1 2 -1 4 5 6 -2 -7 -9 -10 11 -6 -5 14 -14
right_child=3 -3 -4 12 10 7 -8 8 9 -11 -12 -13 13 -15 -16
leaf_value=-0.081105696529792104 0.013259962493050233 -0.035032119559424688 0.052901487987068944 0.0062421224738036969 -0.078713807909406339 -0.0098816762752496588 -0.034720727182056536 0.00073299400479110777 0.031652567577112142 0.0056321722371054641 -0.015853519496489301 -0.00083134802564418641 -0.0093168935986839303 0.0089539932660630175 0.03484380329104908
leaf_weight=1.8546349122188956 14.637758067809044 41.741741597652435 7.3018475263379523 843.33002690179273 3.5265979385003439 98.897104745265096 31.84402568731457 203.86244590533897 59.770049343351275 66.212476299609989 210.09252201439813 223.49581012129784 269.19349375972524 129.22313821082935 12.43814462982118
leaf_count=38 147 1048 65 4772 108 1054 669 1805 491 523 3449 3388 2112 802 60
internal_value=-6.6998e-05 -0.024096 0.0257585 0.000497517 -0.00358277 0.00110559 -0.0196109 0.00335156 0.00731927 0.0179771 -0.00867987 -0.00204119 0.00346566 -0.00223337 -0.00736655
internal_weight=2217.42 50.8982 9.15648 2166.52 912.339 475.224 46.4818 428.742 329.845 125.983 437.115 227.022 1254.18 410.855 281.632
internal_count=20531 1151 103 19380 11634 4689 816 3873 2819 1014 6945 3496 7746 2974 2172
is_linear=0
shrinkage=0.05


Tree=50
num_leaves=16
num_cat=0
split_feature=50 13 29 54 7 7 54 16 8 16 53 51 0 4 14
split_gain=11.8325 11.0391 10.5554 9.00681 7.95157 11.9346 12.6811 12.2314 13.008 11.4046 11.17 11.2247 9.63542 9.79694 11.3134
threshold=3.5000000000000004 9.7451906204223651 8.5000000000000018 10511.500000000002 4.0833332538604745 1.1250000000000002 10421.500000000002 46.500000000000007 1.5000000000000002 71.500000000000014 6.5671169757843026 1.5000000000000002 4.5000000000000009 2.5000000000000004 10437.000000000002
decision_type=2 2 8 2 2 2 2 2 2 2 2 2 2 2 2
left_child=1 4 -2 -3 5 6 7 -1 -9 -10 -11 -12 13 -8 -15
right_child=2 3 -4 -5 -6 -7 12 8 9 10 11 -13 -14 14 -16
leaf_value=0.0011624314146641028 -0.0021402699492326987 -0.021082291273680592 -0.021056936473673366 0.094619010516435731 -0.0029914417770808038 0.0098218514792397724 0.0047335791735860742 -0.07552216380435639 -0.039201775802833384 0.017156305161575028 -0.0027241501758883263 -0.04529554120042821 -0.0093133118351155092 -0.081427606251341378 0.027490839939177916
leaf_weight=202.63822770584375 205.30774743505754 67.20438072597608 115.07835079240613 1.7252136804163445 525.57342691230588 557.76785572431982 225.40333941718563 9.1520674247294647 33.737686138600111 35.193618832156062 44.552001574542373 23.73181377351284 78.808591254521161 2.4528310336172572 85.11812524870038
leaf_count=1590 2754 1215 2324 10 5937 2347 1738 99 386 213 424 368 679 20 427
internal_value=-4.86103e-05 0.00145532 -0.00893488 -0.0181864 0.00219754 0.00429771 0.000138378 -0.00679281 -0.0178065 -0.0139569 -0.00572607 -0.0175197 0.00631277 0.0102475 0.0244401
internal_weight=2213.45 1893.06 320.386 68.9296 1824.13 1298.56 740.788 349.005 146.367 137.215 103.477 68.2838 391.783 312.974 87.571
internal_count=20531 15453 5078 1225 14228 8291 5944 3080 1490 1391 1005 792 2864 2185 447
is_linear=0
shrinkage=0.05


Tree=51
num_leaves=16
num_cat=0
split_feature=13 7 0 42 53 4 1 47 55 30 23 37 50 39 36
split_gain=11.2577 11.0312 10.4313 8.70628 10.4511 9.95367 8.84262 7.81452 12.4069 12.5584 12.6305 11.2204 10.7674 10.6772 11.6416
threshold=6.2705399990081796 10.708333492279055 5.5000000000000009 4050.0000000000005 5.696040391921998 1.0000000180025095e-35 2150.0000000000005 101.00000000000001 0.10557275637984277 1580.5000000000002 1087.5000000000002 1577.5000000000002 3.5000000000000004 0.044823957607150085 7.5000000000000009
decision_type=2 2 2 2 2 2 2 2 2 8 10 10 2 2 10
left_child=-1 2 3 5 6 -2 -5 8 11 13 -11 -7 -12 14 -10
right_child=1 -3 -4 4 -6 7 -8 -9 9 10 12 -13 -14 -15 -16
leaf_value=0.0051618441323738641 -0.0081933869853786732 -0.024265583382827461 -0.016780821609412678 -0.040323009713958524 -0.039945292765145579 -0.039784344771101626 0.095031496257347664 -0.001708811680169905 -0.031529510676062106 -0.035621617891952645 0.032712308260458726 0.015978277333872609 -0.020533830591688441 0.010264522429858983 0.0039625995653591534
leaf_weight=702.90932811796665 280.54595544468611 56.078746114624664 105.71977132582106 2.051893005147579 25.362824852578342 25.285575322806835 2.9291405081748962 538.77590350317769 37.146588747389615 8.4704999253153783 101.06084980256855 14.024760542903094 10.479095625225453 227.77176640415564 61.116931220749393
leaf_count=3775 4133 2428 1664 20 292 399 3 4497 432 65 498 139 157 1429 600
internal_value=-5.78473e-05 -0.00250902 -0.00166218 -0.000464943 -0.0269413 0.000150838 0.0392734 0.00243662 0.0070383 0.0094115 0.0232399 -0.0198899 0.0277099 0.00432142 -0.00945449
internal_weight=2199.73 1496.82 1440.74 1335.02 30.3439 1304.68 4.98103 1024.13 485.356 446.046 120.01 39.3103 111.54 326.035 98.2635
internal_count=20531 16756 14328 12664 315 12349 23 8216 3719 3181 720 538 655 2461 1032
is_linear=0
shrinkage=0.05


Tree=52
num_leaves=16
num_cat=0
split_feature=7 39 16 59 53 10 32 1 54 53 42 15 55 30 54
split_gain=11.2841 9.14915 9.81774 8.77324 11.9114 11.1804 11.1471 8.6053 8.44227 8.37562 9.70536 8.11689 12.2862 12.2415 9.59445
threshold=11.125000000000002 0.13373984396457675 270.50000000000006 2.5000000000000004 8.1702213287353533 1.0000000180025095e-35 1750.0000000000002 2550.0000000000005 10509.500000000002 6.0470223426818857 6050.0000000000009 0.2115893363952637 0.34498016536235815 1098.5000000000002 10343.000000000002
decision_type=2 2 2 8 2 2 10 2 2 2 2 2 2 10 2
left_child=1 3 -3 9 5 6 7 -5 -8 11 -11 12 -1 -13 -15
right_child=-2 2 -4 4 -6 -7 8 -9 -10 10 -12 13 -14 14 -16
leaf_value=0.013621311075508739 -0.024238595813553521 0.0075525002140421809 -0.028163281000255974 -0.0054870068669165117 -0.017991353206508045 0.0039226802757719465 -0.031983660864695528 0.060523341636047681 0.062924497891386141 0.00016063624796784344 -0.058074822171091167 -0.074705902765228469 -0.031825988964272085 -0.063323122031406234 0.03255656767807312
